{"layers": [{"weights": [[0.5385393028594251, -0.5670656734846823, 0.20929465915621767, 1.6417432617212273, -1.4661414623896794, -1.2751182848373672, 0.4120693541727883, -0.3696441187158057, 0.47601547673124234, 0.6054501766669135, 0.4382193404340715, -0.5104527357258931, -0.0840171469974956, -0.18205672885643795, -1.5790731796210626, 0.2369357409266799], [-0.3743506255861212, 0.24814628772680744, -1.5213748063914267, -1.235508661896009, 0.8690199752672177, 0.08388073967495269, 0.056627829132598735, -0.7808433054252281, -0.673591453569471, 0.4544216543687679, -0.14643018707779296, -0.3781219945654683, -1.4214036973211326, 0.04582573144064952, -0.8341621505001138, 1.0655062420904855], [0.28873407136244084, -0.7430284479020031, 0.16978018086859864, 0.21817081990087456, -1.161597460026884, -1.9514827877204293, -0.9069085700973676, -0.5295753406320475, 0.9443749730518307, 0.40378833296290423, 0.6249076028354676, -0.43996723875776556, -1.0459598363853702, 0.20621112257857077, -1.0824482419443133, 0.8412930423163256], [0.432168874238137, -0.9984701406168358, -0.06162528427250725, 0.5824474039270399, -1.6988585507232066, -0.8393928387267293, 0.19944077911058913, -0.2289413999811703, 0.2329272942125941, 0.2953870461944255, 0.6296719657814749, 0.15021210478852823, -0.34705613045440975, 0.6194486929566262, -1.436847212609489, -0.06348783237964463], [1.1919712069554986, 0.7784734199420321, -0.03896400700034021, 1.8655392695650663, -0.21080309434087127, -2.293286322326638, 0.02183617609284756, 0.4176963097404196, 0.9979654829516321, 1.5403318212685493, -1.09712136542622, -0.3772541748195834, -0.5554421932866077, 0.48756878821697813, -0.3759883950213625, -0.30187172126045675], [0.33170411278305534, 0.6482461082727314, 0.2407393947706792, -0.5716029508681042, 0.5094303983763497, 0.36390672141773306, -0.08717663482062807, 0.11772872749872151, -0.32569492720253485, 0.41703527733796597, 0.7714402019501658, -0.04707347954512199, -1.4064408142561038, -0.8476337935375082, -0.34608237190611707, -2.0268389453772357], [0.48144443469499654, -0.4136876843475632, -0.20539742483651785, 0.08756379320295606, -1.320855001740876, -1.0520991380503533, -0.4086416490599495, -0.6588113172127059, -0.17068957767024173, 0.4794478425602464, 1.2863245784143462, -0.06859990858348293, -0.5161626334025305, 0.8729504866710703, -1.3812433693220862, 0.46088411820357655], [1.0250445349436303, 1.328407260822368, -0.4650906128813582, 0.09425783066865186, 0.31874010282685183, -0.7561548938224295, 0.05560749655198925, 0.12423313106082515, 0.3713656077082471, 0.038621772132563154, 0.7654768344045894, -0.941324387308249, -0.9680582791041987, 2.1375903638417015, -0.6538047077497564, -0.5594245114934958], [0.8991756672555666, 0.7933887621531593, -1.4441869886590848, -0.8619413124045479, 0.03493436168919888, 0.4381250863552958, -0.8555296872240353, 0.5722243129561163, -0.5561310333007802, 0.2194077430530339, 0.6643082990129312, -1.0001778132727053, -1.4262828816352384, 1.2386406423606964, -1.4952537137583386, -0.31561403365562274], [0.40237383869220106, 0.3661962119940292, -1.2059618726289019, -0.8974799278411818, -0.38186880333431994, 0.07477622673327236, -0.2525370698955086, -0.2632084060482251, -1.04915525568857, 0.19230359567526742, 1.7238855350149012, -0.7333443569322716, 0.4861631740876225, -0.027985118751438214, -0.8465512719257943, 0.09980552180679435]], "bias": [[0.5617626047903849, -0.4429029697103656, 0.3717669991734123, 0.017131089106184324, -0.3318051821975827, -0.07728459251847063, -0.6745526306463675, -0.5623972381429388, -0.5743403482182964, -0.2180973569210169, 0.15272631989622126, -0.3810594809163341, -0.3105674702132966, 0.20695810282985413, 0.5586156491864481, -0.2070893961594497]], "activation": "ReLU", "name": null}, {"weights": [[-0.41331227697746653, 0.2588983239009842, 0.9127112556178557, -0.7025518361014265, 0.31720518574273393, -0.08098545980330024, 1.0437739048086825, 0.13846539533598864], [-0.558623694348309, -0.2291788351000777, 0.003649503971013786, -0.599895653092497, 0.0025067455249255135, -0.17204320473188917, 0.8945712440654046, 0.0033342757870518467], [0.7571152686025795, 1.165825325758035, -1.1647736931902828, 1.105629466104414, 1.086893288659651, -0.6033258515284494, -1.7077303855705703, -0.39695165677483957], [1.2503307754955648, 0.3684369556425447, -1.2142747626595514, 0.6067430671073814, 0.22692108615621778, -0.5355793725184983, -1.0468893661067056, 0.1225377631398178], [0.4767343911411288, -1.5348916621322364, 0.1482529792819813, 0.7130631488324634, -1.510780587270195, -0.2459251735866569, 0.4949850706131706, -0.572224294275066], [1.19783210783868, -0.265600268680922, -0.2989273745360633, 1.2973402011289368, -1.0791252265943043, -0.053681636659893735, -0.18660933012821745, 0.19274015016479507], [-0.45956721626429453, 1.1070222245097967, 0.5075783521275935, 0.0687345045535787, 0.09130881037242344, -0.06747142760275068, 0.1406948112211485, -0.03751445680727227], [-0.38062573441177966, -0.1498161283595998, -0.004273331670872795, -0.26285235759052694, 0.765832873233139, -0.9579673118323747, -0.26205708419948454, -0.9273107057204507], [0.7483509339001571, -0.057690691145603885, -0.5532129726920066, -0.06987192628324737, -0.7625556194582609, 0.24027408837541106, -0.5109507552946444, 0.014326891188022313], [0.07694289452285247, -0.8270441512303452, 1.1112112158619372, 0.058426865632360526, -1.318677057588048, -0.2266773585380605, 0.5773959420021894, -0.16311153176742024], [0.6731119364935714, -1.2181521551441032, 0.2243028059619037, 0.7943864097470422, -1.4400308379944695, -0.11826404608920761, 0.3963157784883239, -0.7622755056192528], [0.6962058200916867, -0.14243114409662996, -0.26549423589439064, 0.25754969137474115, 0.5614133590458614, 0.07166541849042124, -0.9683526373537013, -0.6837533856467876], [1.233367841201613, -2.5671863070680603, -0.43043448695513703, 1.1747508307296626, -2.3018578298337293, -0.2869197545878232, -0.6866681207076849, -0.5698740409311877], [-0.3825855200514609, -1.814402500220591, 1.7916346175500444, -1.152076865104195, -1.0217945087455855, -0.22021786404558946, 1.8258542435354697, -0.5709070984680213], [0.601482840352642, 0.914786459881115, -1.0327756947117772, 0.4107624133021167, 1.1730695231063577, -0.21220871201079836, -1.4831639386381843, -0.4774481749296182], [0.21692554144737924, 1.174977050820551, 0.1433574670577996, -0.1994063118975618, 1.7263855191061417, -0.9904420078663628, -0.09331582424649977, 0.672087076383339]], "bias": [[0.43278773798380366, 0.5529738018587487, -0.09232567198488885, 0.33446509639057376, 0.453060499299397, -0.29639835880706406, -0.09592493030079245, -0.27708260579778377]], "activation": "ReLU", "name": null}, {"weights": [[0.6792468917068434, -0.8501007177496386], [-0.7365469523951153, 0.385985359887061], [-1.1086172535804275, 1.2387359236188276], [0.5511905715255467, -0.7191376261733667], [-0.6372599526555085, 1.2407096508104383], [0.0639126732081913, 0.6573328071730946], [-1.5415699416343418, 0.8469819160748121], [0.048433988829427635, 0.6303979464489365]], "bias": [[0.2744365766312882, -0.27443657663128995]], "activation": "Linear", "name": null}, {"weights": [[0.0, 0.0], [0.0, 0.0]], "bias": [0.0], "activation": "Softmax", "name": null}], "input_dim": 10}