{"layers": [{"weights": [[0.15481430303058508, -0.021062825538651988, 0.2078227613515184, 0.4076093257978618, -0.08279053212281197, -0.08450677779949069, 0.4574454842543922, 0.19335393723871322, -0.15744952833721335, 0.15443248895391126, -0.10953911608410907, -0.13972724800478667, 0.04654988114226688, -0.5561732541058173, -0.46870920197567445, -0.16723332213882108, -0.2555580323973869, 0.07767187858489966, -0.2843875571791015, -0.3947686380227902, 0.4220303095572831, -0.05945211559208689, 0.037714930683175704, -0.3836337180706067, -0.17325090632291626, 0.046215421966499706, -0.33827184691190704, 0.08563366940937647, -0.1362190819537845, -0.10968293360768153, -0.19200335307564742, 0.5280406873419901, 0.016075727633284412, -0.3246367115805179, 0.22031399805935134, -0.33797620664993316, 0.032426897980396906, -0.5793613298723881, -0.39518551563730003, 0.03264067223843319, 0.23368211413427795, 0.06770330813963783, -0.014962991532562187, -0.0661068980568282, -0.44139308558823104, -0.22329839825664632, -0.13922129986546156, 0.3227674000308378, 0.07374680476720027, -0.47194937309335083, 0.10616953584289014, -0.12066566080500521, -0.16895853032058583, 0.16137052072115968, 0.27899553475793876, 0.28520473035096233, -0.2609405522965937, -0.06711606713525942, 0.07141187016632186, 0.2891267343159203, -0.11247509363297696, -0.06372142602816819, -0.3297518052040336, -0.32152628470301026, 0.20774111101398668, 0.3864228770648612, -0.03510545147016143, 0.25816144436425076, 0.10028946282103009, -0.16483027874878825, 0.09640379562627217, 0.40922011860671176, -0.030195291089233033, 0.4293355275716502, -0.7535061714575502, 0.19522230735255577, 0.03757047452275322, -0.11061637251157048, 4.8647560779440134e-05, -0.5315271936590759, -0.07377063074131729, 0.12038341271139044, 0.43247305783224355, -0.16904119058682401, -0.21625393656874914, -0.11845945500522026, 0.2571051274916319, 0.08202595107156219, -0.13296820409507912, 0.15937809635781025, 0.0205116698707392, 0.29052334607252756, -0.21145018965847812, -0.08065842022933607, -0.12094489930458505, -0.4139437819563302, 0.0750049083550396, 0.08422559790810474, -0.008881921226864676, -0.05474929817337546, -0.3849596489483833, -0.13918190849770654, -0.08790329319004095, -0.24306104373223286, -0.0285755660204899, 0.12820913318540367, 0.5110240288049451, 0.06391161137041815, 0.09375989055654317, -0.003357927846889362, -0.547201947728628, -0.017569750102259113, 0.010046589694857753, 0.6749135840263186, -0.049456569917635605, 0.10114679966801586, 0.0072895872167604145, -0.3497338868529284, 0.34087122294315786, 0.22978031334129834, 0.24416614245877244, -0.26827514830081844, 0.4116632716291814, -0.42168012967984436, 0.1521900157795889, 0.6260092921662294, -0.3015089180411068, -0.17927274050687855, 0.03987219684183686, -0.12153304417073797, -0.44627153125971725, -0.004104481736909573, -0.29280808836915134, 0.11303878392736279, -0.2703549592832482, 0.4535759343086522, -0.245071106500179, -0.07091760338266388, 0.20858025678794861, -0.32866147972863474, 0.08426437551909428, 0.3552523019119238, -0.45006522871856264, 0.059587826482321894, 0.09694231876728988, 0.22411933877700352, -0.35868417897983146, -0.3470814446573395, 0.11954244659537039, 0.054357760507719885, 0.05701090758563173, 0.09101761955053822, -0.21496866056493422, 0.058551297368160046, 0.06456469843668262, -0.1808755628204827, 0.5016929399347831, 0.12860632173015799, -0.320484175290205, 0.17127498691717316, -0.25562981566313636, 0.22871687404869737, 0.295899069449153, -0.24047435947862442, 0.2593949403351916, 0.1370685519551794, 0.2148923647017888, 0.5183012916216013, -0.09239491927307689, -0.19331316462025422, -0.22863235458234452, -0.2372257933891099, -0.015144957575062793, 0.1155333276168207, 0.06066288311951069, 0.24264097677979402, 0.02669263203602239, 0.38872468879697136, -0.06828203290154342, 0.7646599580769647, 0.16941491429796326, -0.26346808334879934, -0.27867981633918965, 0.11473746794180636, -0.07994378263400553, 0.18135688685573226, 0.14881930192215093, -0.0032417229013845727, -0.2594087943104111, -0.4584550622079312, -0.11781276813149825, 0.25353958839024826, 0.07186642039732018, -0.3690744667581698, 0.04784299837086535, 0.11075956309314165, -0.2733874891910313, 0.0364325982067989, 0.0363713235727081, -0.3483557959540561, 0.12362874994560695, 0.12567528771342684, 0.28377536349660787, 0.30599181260588204, -0.3656903122721138, -0.2861998467908523, 0.16251328907357937, 0.14653052612537323, 0.11940838940757124, 1.088440341518409, 0.16961133509502965, 0.34235853901563484, 0.2803890129799427, 0.19603602663882394, -0.06996646551640975, 0.21493069202861123, -0.23280549246603757, -0.03930393360963994, -0.15527095506395644, -0.003390708846882886, 0.6530587609569893, -0.5262463286908653, 0.1801676870957995, -0.48440260193245893, -0.15597460476311703, 0.27815476827402424, -0.005775759332654552, -0.32675393180366263, -0.1833056224708122, 0.21211533315914982, -0.17340016341709896, 0.08281405748511099, 0.006427272021250129, -0.19451117770353968, 0.6064317405816065, 0.16822669025540132, -0.5495205646840126, 0.0796419706364772, -0.16118747255457316, 0.25173884363465054, -0.23675697612948932, -0.0440727470619786, 0.14047569121306494, 0.2610474393154823, -0.357007718676786, -0.1081179906965796, -0.1415467350685689, -0.18869368351372953, 0.48482926980547447, 0.13736032424228767, -0.32745828222519413, 0.27097297247707747, 0.5787087365439467, 0.3002646102655727, -0.44894412413250484, -0.15143372531578977], [0.3594366168766919, -0.18741591929670953, 0.11801255842545261, 0.21102484612964897, -0.2641368329981221, -0.015230052958720569, -0.9055199110102541, -0.29254657847071786, -0.07585648069690888, -0.3512459124620851, 0.4607528371595657, -0.4042939083305988, -0.12812059174561072, 0.03168235855744641, 0.41154717820629455, -0.4039574056200509, 0.32906081328327424, -0.012360014282178769, -0.2770231116201195, 0.13952276109326678, 0.06483047605848541, -0.15677705993084073, 0.020588729769133514, -0.09577026082972133, 0.025728896950336887, 0.17495251721574273, 0.43872541276234184, -0.3502630774215817, 0.5863499591929069, -0.5340269915976599, -0.05261212470802563, 0.13223302244778135, 0.0861250387216296, -0.17158512816888927, -0.07259497533318429, -0.1260324413365281, -0.17172361719566462, 0.22519947156690878, 0.09246171824041954, -0.20308948152138961, 0.25610105606372846, 0.09122413735581417, 0.23329939757590779, 0.17010367767354873, -0.2407344458606589, -0.15839482193862206, 0.18827244057060205, 0.17313967577078082, -0.012707669304233895, 0.04426607254573988, 0.3700844473493355, -0.16958055343485337, 0.1581902742544676, -0.06727011952117397, -0.07548569801382367, 0.3096605701451154, 0.22078889089915602, 0.233191079529437, 0.35191299809885324, 0.018047793567924172, 0.19638883145306082, -0.0940094248072151, 0.08082885977391126, -0.026225390884945084, 0.018003706781673408, 0.17411761155015254, -0.23642879488026197, 0.570434118939216, -0.28534228862569855, -0.3254607425652336, 0.32744310128918214, 0.20629975754892313, 0.17797099250670587, 0.16863482990160475, -0.007174208313411069, -0.2576325429630997, 0.03637274108023798, -0.1909906366443707, 0.2625597029006194, -0.03666534041184174, -0.21807361353773103, -0.10072762319915286, 0.11717888678134009, -0.1687710710718047, -0.21767428857270926, 0.08297683486666778, 0.050214718764659515, -0.15392046024449282, -0.11926406488597976, 0.06320922216945447, -0.42054882175463076, -0.3804871016737364, -0.18280700783853324, -0.06354207084155976, 0.07858878223106561, 0.4019118931074684, 0.23086242839400792, -0.028159664254552824, -0.004002218138656414, -0.2730305185136, 0.0029355737214188486, -0.0918410402815967, 0.09399491824596606, -0.24174790072971042, 0.15926202851699767, 0.43657942510014935, -0.03444459730883085, 0.1140941523409322, 0.18622726776807033, -0.10261214198454405, 0.0703971146732346, -0.0056050009230719875, 0.018387328906533017, -0.21645665562860045, 0.0160422940681001, 0.14680487834482223, 0.4126112861717164, 0.26656103227399214, 0.6008209083488137, -0.20628284602601785, 0.24786232992668594, 0.04142841166929308, 0.6133673992597977, -0.22247016149031365, -0.24657616966054818, -0.17661230108938142, -0.5702081697346716, -0.15505523078581576, -0.2068397225740284, 0.050300335023432674, 0.0859702788593283, 0.5160108902091274, 0.27253134982089844, -0.16408827548675972, -0.22601251687832818, 0.1356241737545721, -0.3703881462681867, 0.519588396521138, 0.31999880955614696, -0.12026593074229142, -0.46737945140071746, 0.36505434326389113, -0.029072252620343377, 0.3583517956876998, -0.42893793071622927, -0.1645392266921009, 0.0074216464736463405, 0.022038011625547277, -0.1309071229839322, 0.16681068721402206, -0.30712527471611323, -0.04392936642600194, 0.027466477675652027, 0.1430997329430804, 0.18876279655761485, -0.3039095281796969, -0.43614902080661805, 0.3394258913159946, 0.10360160673308733, -0.21546585782596708, 0.43722018219131803, 0.04132951593431308, 0.32230464955722454, 0.01025001140560353, 0.5540748250775741, 0.49579040017886683, -0.06949843957642564, 0.26711384115774967, 0.16751564575312122, 0.39064688024252786, -0.25670285346992827, 0.18262942677844646, 0.30026385287435203, -0.48607335397402524, -0.33623580246404816, -0.563087130960068, -0.07008956954029999, 0.19297363788529556, 0.42372541602983266, 0.019365383453265658, 0.4511400481953605, -0.3733936976771271, -0.46987073978957333, -0.023704174136995094, 0.11497964511831893, -0.020080610932071065, -0.5570728361058676, -0.019103911262523574, -0.3531619482537085, 0.17183895326007478, 0.112652528013463, -0.2511853521032268, -0.13829071815908248, -0.2991205778914633, -0.02570089240693571, 0.27805373998820404, -0.2792902440217044, 0.13904989025509498, -0.13858484448459232, -0.22478808695324, -0.027725702906933443, -0.29064557449999956, -0.15670460519008853, -0.3161048025622061, 0.5535744730420148, 0.009986779374074752, -0.18413198393468297, 0.060094758254103646, -0.032380820382180174, -0.05259899210863394, 0.1773575425287534, 0.20433101927689956, -0.1328791506355202, -0.14452458156812067, -0.06989199086897936, -0.6322779357064742, -0.430568654785507, 0.37961025355323585, 0.4497416897248731, -0.0737382525103963, 0.1499621205556319, 0.09530326340513422, 0.8424762490135176, 0.31186391591882645, -0.04171414300102489, -0.27133301699676826, -0.44774569806061437, 0.04114371352847027, -0.19856116293431741, -0.3840319336498905, -0.18137750852077672, -0.29816755410731005, 0.4557183206759425, 0.23784888041739827, -0.01949711655444219, 0.4004632560150743, 0.0319807718784535, -0.23537118905182813, 0.41657294652896787, 0.15714421246385174, -0.2870351983237455, -0.05953154498590383, -0.23107514687429923, -0.37856857375279146, 0.25241289359322344, 0.5227850895605791, -0.3950594397887885, 0.1462880934433981, -0.1754754263971116, -0.13097509455634596, -0.16834001399167514, -0.22995207590373715, 0.0012585700093252661, -0.22206209719078324, 0.07760288716240706, -0.015570178851375795], [-0.04919945854068707, -0.23570485499312754, -0.15981705739855623, 0.20027552093462272, 0.1296601316673332, -0.27605993481984836, 0.03553855304600886, 0.21687971715137688, -0.48242591828447284, 0.14514621969306868, -0.18170775716782886, 0.15258150190083414, -0.22220900698802717, -0.49952224041946935, -0.4523971263267556, 0.005961821048157919, 0.0741806182539183, -0.2621533368460757, 0.16988689500778723, -0.4599677094704071, 0.0005171786439928141, -0.3214457111071487, -0.17303238216817327, 0.01987337990980056, -0.25030377799676845, -0.11977404442959934, 0.28761637961896586, -0.17031914170562823, 0.23137626670878164, -0.3193996687635177, 0.14022431437941935, 0.39701905309395985, -0.6774812357980518, -0.23153689185962564, 0.15826191638982046, -0.06020917289747596, 0.09236998208652238, -0.17491993214906212, 0.02700605728270206, -0.05568626777133542, 0.3247717579310075, 0.07390783601774377, 0.10889554429446446, -0.11030491327154582, -0.14220476262389178, -0.13964043700084208, 0.11359363220482466, -0.10911319457514622, 0.08192750616983571, 0.5828561507813235, 0.2467239415692666, -0.07234668274987817, 0.3242845903169765, -0.11827392128312839, -0.588897332090872, -0.2650145947639338, -0.5342741598555835, -0.09956826296661377, 0.003835164139128777, 0.4751155732897905, 0.09173202267951096, -0.07600400168755359, 0.2221697165663687, -0.604121091878938, 0.05595337062917647, 0.20737933165713363, -0.425620991233856, 0.30762380152473995, 0.10139386185023982, -0.11582491394168039, 0.1649574494338264, 0.6249971185159789, 0.04065032432885341, 0.06092157829901966, -0.12908815681898303, -0.251928549706861, 0.2408430165143049, -0.2531729577605285, 0.007953406416462735, -0.11597770352905917, 0.12709478667596236, 0.08998409836386262, 0.29502980739341716, -0.1475107383039726, -0.06576228891828434, -0.2542604977368045, -0.1261316255257242, 0.11113412121869427, 0.20909429538538493, -0.252208485614022, 0.2269774801611039, 0.3713721632670941, 0.10889319163315943, 0.5289639918445695, -0.21201864209305182, -0.3453420680121491, -0.48912061000005164, 0.42219208796150925, 0.1698089531643113, -0.0059836348135844444, 0.07192572226428008, -0.3328621695636099, 0.6816175436687071, 0.03357832718816073, 0.04011903809524484, 0.21457158745275512, 0.12685671684095237, 0.07542034475917533, -0.20358286345689222, 0.14315760200480263, 0.5315336769443534, 0.36478725240655246, 0.4357628736869434, -0.15615168121085068, -0.2769358591842588, -0.024219504183592692, 0.024193503029440636, 0.30350438554732156, -0.4632718123361344, 0.42639092327602846, -0.027786262729789287, -0.12891388067454554, -0.2814694272386421, -0.45496543643212817, 0.21310217870003875, 0.018174475219680866, -0.3704272878052423, -0.3759565308336896, -0.07930909813651765, 0.45743952200317356, -0.09070594180239089, -0.4215137264018969, -0.07425247624520871, -0.08093491662941447, -0.7543618781274459, -0.0058049829252179485, -0.056966614878790636, 0.20415967085766965, 0.5047920351166139, 0.3169766191779944, -0.061981529061212993, -0.3185592015108258, 0.7251813087273823, 0.02521814582549044, 0.0193262798131936, -0.006047225251508246, 0.03235823709344675, -0.021660631340286996, -0.17036730868883335, -0.1664443132850577, -0.020747212115771487, -0.1560443875294145, -0.2132462841348567, 0.03582809026976363, -0.07628582571300654, 0.4300379429717514, -0.7476841257413425, 0.29149673411603816, 0.3549886644388077, -0.5930846940751507, -0.09721219067278832, -0.09056992236097228, -0.39714657102575834, -0.2293755697564781, -0.3165175165974487, 0.47670799174527306, 0.2558629453021434, 0.3429539133630278, 0.19381675608624094, -0.2964983245852588, -0.13353074706506649, 0.13154630729343478, -0.3312716822434098, 0.20266867726409069, -0.08381018811636012, -0.09749822710415944, 0.21130618850266378, 0.10939115818522767, -0.10195608951099297, 0.30808908389445505, -0.30610566328255917, 0.169617772016013, 0.17597304928101712, -0.10477365800671794, 0.08039857315067982, -0.3542242711705455, 0.2683094801172363, -0.032544789553756594, -0.15759892448812843, 0.2917330384626597, -0.1999181700395877, -0.37434726716959155, -0.4281167565208113, 0.1728403135390611, -0.35338279580516, 0.4940562752339062, -0.5768804594115452, 0.4603351700816567, 0.058501635652178176, -0.03775723467937345, -0.14229733681445517, 0.11367997752076829, -0.016184676927750233, 0.3205641991886893, 0.048433495460378714, 0.043065085917607375, -0.08350164420887166, -0.0017240207982397078, 0.07235084166772253, -0.4628712598806175, -0.38033793938498467, 0.21599190797409526, 0.054081490720159865, -0.03271378840009071, 0.013322410431270087, 0.08406595849856648, -0.1549151555249122, -0.2102706270779111, 0.0345461054545305, -0.28828896063377646, 0.11203128557757569, -0.48883567641974146, 0.27580785887600107, 0.1330712708713015, 0.06081971641518911, 0.2676163116473014, 0.46398043749782103, 0.2895548739828108, -0.4994004825207184, -0.3420554832516732, -0.160707377110791, 0.0024856129808765973, 0.1492122996466838, -0.21500113210585667, 0.056005534345078926, -0.21959924938653966, -0.15932697187446065, -0.38756454140538693, -0.24403507461303509, -0.35901362378257673, -0.2827651692097691, 0.28321725560836825, -0.25979264010589526, 0.7329278943592635, 0.12850882755851986, 0.0421300621715129, -0.2561762425270158, 0.20052886756349625, -0.14153536871190492, 0.040701883320196634, 0.707932723806803, -0.02511051196265028, 0.3092750799661212, -0.18286693169689247, -0.00342627290324308, 0.4889089357984148], [-0.16623699982671175, 0.5112254886709998, 0.19109629848842813, -0.15902269340596503, 0.16861877373835463, 0.27155788684737664, 0.16564324093213673, -0.4436180832785873, -0.20735179108862065, -0.07682850446879563, -0.012956425587346275, 0.15954937342984932, 0.04368397431408595, -0.37475665877936526, 0.11688928686488145, 0.16335811776689133, 0.16129389595211, 0.2871305868988337, 0.2267772257442985, 0.13866178337614207, -0.010727393233970168, -0.45105820555874143, 0.12099911503711556, 0.06821294019150227, 0.06954652773854662, -0.36197365435177736, -0.29971601150388594, 0.2829972036361533, -0.01621664020978653, 0.19633680135056028, -0.0023628376916830216, -0.022295231497673124, 0.26842489742271447, -0.14187551680290897, 0.010754075016775784, -0.1174059113242322, -0.12810504904143688, -0.09621858088565648, 0.055276212791459625, -0.14560267692104273, 0.35423213845348195, -0.24259758694213268, -0.043970095889140776, -0.1259899086049421, 0.3901728900299553, 0.05339004558013016, 0.26786965219483366, -0.4084050820482998, 0.06748397376384829, 0.2582948635734636, 0.03784931150766288, 0.28935864659489785, -0.13701501268982366, 0.38020254618342, 0.6230269961364656, -0.09641590985587743, -0.13124557743702817, 0.41000831653830605, 0.4284394427710897, -0.13360731138305362, -0.10947131866674556, -0.08593548461766537, -0.3832425297425847, -0.245147470320851, -0.28716078771320175, -0.20403463951299475, -0.018640962886583835, 0.05552215198953974, 0.42351131440390655, -0.26611751289603097, 0.2798593875722623, -0.07224731024227098, -0.008782274111827224, 0.17961059087969786, -0.31507449081772515, 0.09838817637546203, 0.0601458679320173, 0.1337834325550207, 0.07274647422775328, 0.6850638880513357, -0.1650492340329207, -0.15926722112458364, -0.17418389963219763, -0.1660984563539919, -0.16698172194017222, 0.34522877676882774, 0.376704628383584, -0.17170294196618385, -0.22005664624067467, 0.13014977533234542, -0.1710274771847781, 0.18478362971827653, 0.07318317220602957, -0.4249347388815129, 0.4210222950416463, 0.49099522584667915, -0.17696627091512765, -0.09170029301677927, 0.08177661829219667, 0.09749003233624928, 0.19063555715441674, 0.5453947551891392, -0.04372039955992603, -0.23284659796573928, -0.36801357720455385, -0.19196920367822323, -0.012981437577262164, 0.5001499213316936, -0.14761212047637673, 0.07095394503447491, 0.0035358072059206414, 0.318316972353453, 0.6923006136812577, -0.15037316697841394, -0.12590696074281416, 0.2980722929965764, 0.1986704703314932, 0.5131301101438346, 0.16458159955793517, -0.09339214232520691, 0.16926388085611674, 0.29843912972445125, 0.2336006447392666, 0.14304285321497914, 0.2832999265756071, 0.31366903667391366, 0.40272336739194414, 0.17078527873199278, -0.04155698271392015, 0.04936217194797408, 0.32595491168232893, -0.23079144235305826, 0.11116260076817185, -0.11252817664596965, 0.031090937350582465, 0.35318875753911044, 0.04903754565012396, 0.023882576912128074, -0.3864117885078923, 0.2167859003094337, 0.1872142639004027, 0.5898798685547001, -0.08524210250365881, 0.0755539939874379, 0.08269772282717272, 0.4398716386891294, -0.02067671909110529, 0.08627461849844005, 0.1632578825928637, 0.04618405083435697, -0.1346529404402906, 0.04904582587762887, 0.2917294182918326, -0.28518303481007995, 0.027851107324138456, -0.18627534369269833, 0.3207962067429142, -0.4359713787506398, -0.14438745395765562, 0.09697419586342744, 0.4412520228722795, -0.009430393713818486, -0.15847491496985552, 0.5137270854204165, -0.42000051906953073, -0.6014210228256421, 0.12073591732478851, -0.1433751947038466, -0.29458409387283335, 0.2077507111684454, 0.07761071888942503, -0.16421116698514185, -0.34846171277519183, 0.24206795674801818, 0.17262588846958435, -0.022930718842025032, 0.5168628276613167, -0.3052192966928838, -0.41639878155255083, -0.19303119305722913, -0.014009278394122148, 0.07912861137309314, -0.06384859988744007, 0.0898120465890329, -0.3383821120707013, 0.3902573920017079, -0.007135720452833339, 0.31540224934203726, 0.10508879390331015, 0.11306487086891377, 0.1687725007868276, 0.13355540261250043, 0.17870433971295607, 0.3643064198202731, 0.0466529098856116, 0.2092106032144528, -0.030689881299937674, 0.397837466990656, -0.17941697320861694, 0.4950576093353955, -0.009126420971444105, -0.4000745361099959, 0.03251476747773546, -0.17348656937687945, 0.24145319500744933, -0.1806590729574922, -0.11365747764390244, -0.5227995099634166, -0.12690835160524344, -0.6639430632852951, -0.4322366189066099, 0.2045409339609544, 0.2326328029670422, 0.13196373912022727, -0.26180421196538795, -0.006913230059148449, -0.011286624719035144, -0.321337113176772, 0.4103550507305367, 0.23916678163001617, -0.07163039496178678, 0.015309059781491044, 0.04681559055209809, -0.5642809999578113, -0.07432594935757998, -0.19525553941841625, -0.28010809455626334, -0.09239384111301725, 0.5094400877979973, 0.1882007669860281, -0.161546957934703, 0.16060142241640438, 0.37556182069661176, 0.24972066839283405, -9.59284213983566e-05, -0.18891230346985324, 0.20372318653293464, 0.11234898403972872, 0.24300112753956002, 0.18366295150493908, 0.29124259093715066, -0.15476227715564436, 0.37711699046634334, 0.059867745110765175, 0.5711319044722823, -0.1999419765341362, 0.4744011464167634, 0.045405956103605975, -0.17486322960475575, -0.1304741568150369, -0.09209220498608034, 0.1272746030653036, 0.13326483080788906, -0.15103229363746856, -0.004231175906954179, 0.5923066006214366], [0.4874631840550441, 0.1300493581116272, 0.005049462170910526, 0.030188814118651288, 0.1621864373729564, -0.2853941397511734, -0.07790052807975667, -0.4710251638019952, 0.10360242450805894, 0.1706298514198083, -0.1256764283723523, 0.4311752793472227, -0.34571108348495644, -0.41144238888678375, 0.07300694533008935, 0.2837782024827948, 0.474275472333998, -0.1435938394091913, 0.29304114381546753, -0.0026580734928922157, -0.03787325431699938, 0.2548715527369322, 0.1808984898337565, -0.426142007664397, 0.4024185095907705, 0.3776268487461043, -0.1757002696674409, 0.10205961681049744, 0.13196617367108224, 0.07629660040797104, -0.16407334096045548, -0.21592752251466796, 0.0017479062011508666, 0.3257355500389146, 0.1366687703399252, -0.09311097954571301, 0.2058199066772294, -0.8042118548765317, 0.31103897806488773, -0.4946842606229901, -0.09370661178713034, -0.3038785496626216, -0.35125436450951164, 0.31702362314644345, -0.13937539553191128, 0.08898023832151482, -0.028402586398630796, 0.13459358476426267, 0.0143078086576514, -0.3437054057708978, 0.2922513263388777, -0.1414786186084514, -0.42384158503202657, -0.1289061158514723, 0.40003663434645714, 0.24084753956266627, -0.10775587088469925, -0.0903291067306246, -0.09895676346146158, 0.5875003831942965, 0.11409109685289244, 0.1106853091944373, 0.27511560180407796, 0.07589654558793767, -0.08078344110388037, -0.04490599933645791, -0.02911401503585938, -0.01921064094091668, 0.19526768401410916, 0.02550080694617109, 0.21003400006294248, -0.03482999577793343, 0.02632442882973063, -0.5614737075587191, 0.24948866941161796, 0.08664184190218106, 0.292822706028788, -0.8064390029037236, 0.5708667693090226, -0.034403844919757884, 0.3176809811754611, -0.3018985590616856, 0.16525720537205776, -0.30536787030622553, -0.1627773526255094, 0.5471932185657562, -0.06906035624946186, 0.04603860185985931, 0.2520937356508786, 0.13852353726106578, 0.02360434256865758, 0.11004178387940432, 0.682181842334448, -0.02016298098894413, 0.04758603238080637, 0.2839602069924508, 0.2965088794014721, 0.34644497606233293, 0.17874718327564587, -0.3113759672741925, 0.4608841747650709, -0.3327817526686649, 0.088521063390309, -0.22183703406853303, -0.0021484796098958023, 0.10437031762455287, 0.08226679226907, 0.12040255098507728, 0.4425579722244054, 0.13385301983539521, -0.059728276807099225, 0.26091851463413834, 0.32082785012173004, -0.34053230481664704, 0.17560917350846617, 0.20372933035922092, -0.0719465766472444, 0.38094891335347547, -0.04029483953696952, 0.04084667492260562, -0.04347016942452527, -0.006586276481106221, -0.29839899429607136, -0.3998811552189337, 0.4275755997731403, -0.2465511633779191, -0.25767523877392473, -0.6074213785161469, -0.1734396927543432, -0.35819227817347227, 0.4459225404756133, 0.2755700860670162, -0.1819089833958765, 0.6167412023114909, 0.2943055205944758, -0.09210892485982439, -0.698526257722748, 0.647687932708491, -0.3916634948675684, -0.44615263340782796, 0.2905095865684807, 0.6667675706567512, 0.3839667144437073, 0.1714446220854614, 0.17718714166635974, 0.23920245713432634, 0.2154338063328286, 0.08748288972146938, 0.022834411179422028, -0.023217580181975322, -0.22058526958968044, -0.08212110510235013, -0.47702129235013735, -0.027886299227591314, -0.2812981936904361, -0.2981182852266037, 0.039572471877396584, 0.37103311157345237, 0.2665725610866475, -0.4432428494648736, -0.2669237901615997, 0.2704081127942152, -0.27726641459623635, -0.07180482232223871, 0.14406847162801945, -0.26023440322354285, 0.0304077653258336, -0.3721377325300962, -0.18003962326425602, 0.09955842906427036, -0.42942304865085246, 0.11414351854355292, 0.001038948252661278, 0.15575522518911847, 0.053994313381210766, 0.37997737136861903, 0.03985233040385808, -0.12364911095127518, 0.0405741257573288, 0.15018642464866128, 0.013906346988589178, 0.017929604481987955, -0.19150844407265943, -0.19222540019337825, -0.3815814754304787, 0.4742094750955043, -0.328178535783183, -0.18561439353726683, -0.1904377480617685, 0.23070730236817424, -0.07163767508313851, 0.3559729065097638, -0.18050921012058468, 0.07221732031527026, -0.23968967858532783, 0.608544742005865, -0.33711198931931785, 0.08720269928367483, 0.18433111643610947, 0.10882404869622729, -0.04960525174356753, -0.04032667305398561, 0.009207899830564506, -0.024225817276513684, 0.27661536839193984, 0.6113361109564048, -0.14416082391713983, -0.37928219042977585, -0.02665286266510544, 0.7228384045234459, -0.21480885641117337, 0.44868284339447995, 0.4762980646287878, -0.13682197995445514, 0.16451266147310903, 0.4576548619740764, -0.1145912413183218, -0.0550286021541206, -0.1703095291125548, -0.2875853900854815, -0.19054293107395723, -0.3349178637103016, -0.002479202453549329, -0.21491306931037438, 0.058201519178603285, -0.4379962924278708, 0.09117993587142856, 0.2141153697467532, -0.5408813592825352, 0.11293269996783495, 0.33837202315365256, -0.3335674864476737, 0.4508978855127582, 0.10916706472802769, -0.2125893495640752, -0.02554631243058362, 0.16592841063490918, 0.02518172769310536, 0.14741647736532393, -0.24792369535772163, 0.044746927788539524, -0.398784587666546, -0.019285538045809708, -0.24505175354880646, -0.21105927585448983, 0.3361977293562669, 0.2955628828257696, 0.15971393220167499, -0.30015957203065396, -0.08440676160855669, 0.33453850897964016, 0.04921616327265886, 0.6318365287367843, 0.11722310092295474, 0.052689233974050474, -0.08691701931616547], [0.0394156172931892, -0.03855202615381485, 0.18629344672628317, 0.26594179277369984, -0.21767445937538482, -0.36989415951747057, -0.4986188759107937, 0.1336069245969542, -0.3111612733994877, -0.6094699588167943, 0.11343552926038845, 0.6857209744455711, -0.01262983219692807, 0.22765397485087616, 0.031233949982546853, -0.031029128221509498, 0.25056828073436155, -0.08429991320994058, 0.06919725060860678, 0.09436656604427353, -0.18070511018105584, 0.2813183077594034, -0.04341148552438622, -0.20332521585456206, 0.14590543217777224, -0.24068908909191822, 0.01616942406589804, -0.008302092134125572, 0.291445307388368, 0.12691973761195088, -0.011372731514216692, 0.2321360426800442, 0.3885298027945887, 0.14849717801539095, 0.000843561822786938, -0.35052619287555714, -0.2960762100436296, -0.09039590925304443, -0.1741779742415614, -0.058218444017872635, 0.0013037212461285811, 0.15268702401924167, -0.0163341151221863, 0.13973898448091965, 0.01924303267942966, -0.5334670513366314, -0.26630572987426443, -0.044343908181173244, -0.34340737671946797, 0.17309377786605265, 0.42725146392023966, 0.3319112340023893, -0.05136513442766416, 0.4067437589205264, 0.04027978010329896, -0.08855665872046951, -0.1729329044844689, -0.08535232768154682, -0.11178775840640767, 0.051752268376842006, 0.05026926754065431, -0.0037281449271900015, 0.11999546214106173, 0.3342822102125174, 0.258140508182197, -0.4042163737304522, -0.7154326298440589, 0.2570557262032592, -0.39139099504633984, -0.0553035595526338, -0.31485194163405184, -0.5003002181792157, 0.15286787772109478, 0.19904688901401932, -0.16714912532013135, -0.7163002521691684, -0.14618962365621277, 0.10736939449432154, -0.4201098780707789, 0.05025033433137588, -0.008736055052503024, 0.1622471190021652, 0.02474404906301602, -0.27242912323057733, 0.336452459805057, -0.04100958440996599, -0.00502435844689542, -0.26494061435978644, -0.11802068515055693, -0.25412791061300855, -0.047159494028380544, 0.4827533152236032, -0.37452784062817, -0.4379938688168538, 0.4024552592824782, -0.06204457222881811, -0.19216711088964042, 0.2853381356451832, -0.15817779402201973, 0.5125524262585849, 0.19370926296843816, -0.1379832490814614, 0.5948760388963868, -0.17307284104428278, 0.2106977521460634, 0.0883931557730868, 0.3669946279202937, 0.4269687933275178, 0.008209099494092285, -0.20370566397645512, 0.11374278061752377, -0.18987809550639045, 0.5563384318292183, 0.03304978318459434, -0.09464053169583138, 0.05387655743924435, -0.36984565016574167, -0.2670316868412776, 0.32251561309820853, -0.17545634829073797, -0.2985871835531672, 0.1454520056574548, 0.33514093198747547, 0.18151987318071183, 0.2717710367334427, -0.2014870583184251, -0.38644473147089814, 0.4162070876324854, -0.08474614906939755, -0.06322574224214894, 0.36517108066112064, 0.15033980897891142, 0.12390369805804917, 0.6037009725993567, -0.186035939256935, 0.26597411131868903, 0.0038624734585671404, 0.06264950421711946, 0.4183352865757284, 0.1459224904418525, 0.15169015725187981, 0.29355873878165656, -0.11697418317813102, -0.22800045976021716, -0.28843818238527635, -0.5366501896917968, 0.5784028413748983, -0.3023690217245023, -0.06842480756812946, -0.07861354222363895, 0.08008177923435378, 0.21964101803258979, 0.2385391638292107, -0.17121641096935836, -0.05058237342011109, 0.07892738351401558, -0.06764382792477557, 0.4406510770919665, 0.13975936320067256, 0.19858554194424702, 0.18978361283957054, 0.3298963837634714, 0.04682031655108228, -0.3647926140496224, 0.10542791423586732, -0.1740012134517842, -0.15137875743832213, 0.16064260096901992, 0.3421694852872979, 0.007997623501340395, 0.08983929371185273, 0.4662031676987649, 0.06940974279190529, 0.7048746768274798, 0.15413862941920364, -0.48017530149053667, 0.21445015866553535, 0.10387040897553307, 0.35304345493324174, 0.19103641769727642, -0.043945446757231936, -0.3339049062647632, -0.04976649775926459, -0.24188653073361208, -0.16657930004965374, 0.16823855818459044, 0.46542707676720135, 0.11177008053145335, -0.3149018592912697, 0.1242012581740222, 0.3405259548549932, -0.16545216567202067, -0.04312407829454485, 0.01080977801195356, -0.22227703179243635, 0.17365798707620494, -0.03820914387947045, 0.11144423797766184, -0.24104714814151615, -0.12563204707771028, 0.20764756956924305, -0.10993168572493932, 0.47194462716435837, -0.1084717685076219, 0.0667031343485961, 0.2594436774978901, -0.39158507129552145, -0.48847780316508455, -0.43093280229037023, 0.3563989894877327, -0.15626833094936585, 0.7002358255244052, -0.15021099881278904, 0.055237616205152336, 0.4388796823734639, 0.5639582871722509, 0.5651611995786707, 0.3304604391226292, 0.2857265453088986, 0.16450256387868098, 0.21578717446406606, -0.1529683787170474, -0.2209358179296052, 0.0005829079452845497, -0.04898038498707431, -0.13336549649271517, 0.18825700305029502, 0.2703551104269686, 0.02991648954983809, 0.4135714615585176, -0.3164360228272599, -0.043589263714086425, -0.20243698412391684, -0.5232889741490668, -0.03232348093032074, -0.03627904562604368, 0.4233188605601576, 0.17354418593068424, -0.2764964107713633, 0.5192660341040537, 0.3347128604777419, 0.15545187795442278, -0.05044072399353845, -0.2606413236543155, -0.10905625664202177, 0.2975174882832734, 0.5175772764085543, 0.42330256647267794, -0.13935254289281157, -0.30381745013517675, 0.04868970475719288, -0.48138404096182136, 0.08420812711878586, -0.03523635780291823, -0.13661786392827086, -0.45071922769956274], [0.14418653059769304, -0.14391337527271447, -0.33284874053271346, -0.7907935216719973, -0.008238548210516962, 0.4970370614501827, 0.4519776456054827, -0.1306913781034727, -0.16772907401888668, 0.11559187279719915, -0.27356989726340575, 0.07900977188262986, 0.209671698557213, 0.3395075013254936, -0.020680224913464256, -0.06449930139148584, -0.24561487804198667, -0.2331480522965018, -0.061651933026242424, 0.11632406494854486, 0.25559899725341034, -0.2136996976812885, 0.4174631544045299, -0.06932839995729642, -0.008676060139552803, -0.19622453313907462, -0.6622838863857916, 0.24176698685077752, 0.19630636655343361, -0.07456033589291151, 0.021022936106874966, 0.1306055316890428, -0.42915344116326637, -0.14480371646732837, 0.21289496361711815, -0.3369906001344269, 0.08172417622446547, -0.3769956788257524, 0.1287360093137083, -0.014296869399768606, -0.4628579299406933, 0.3231277702981923, -0.19764059837622855, -0.21868029504354108, 0.06487634220560785, 0.3400383235133875, -0.2859394243912578, 0.0200167113097899, 0.11623075211883618, 0.1971128500084147, 0.05208115116626785, -0.10603408699260207, -0.22329846355015012, 0.01724090586036386, -0.30449270918109245, -0.8141453481006564, 0.12239476104014828, 0.24029437823319305, -0.6586644092142637, -0.2768819105242532, 0.1757951453564949, 0.5656580502549867, 0.006463006270977935, -0.1941531670373825, -0.055948640998382725, 0.3879990583102639, -0.18284451759421214, -0.22356267834020707, -0.1463839682611389, -0.2596077118931159, 0.04559684396466892, 0.45325477541446735, 0.09420587003273552, -0.0761985697224203, -0.08326017039911862, -0.4226042006621079, 0.2497343659027215, -0.02036495096323488, -0.05269174529590327, 0.8803026908980401, 0.08133509849398947, -0.2184317119888708, -0.12617735894280496, 0.31397545454189946, 0.03679135039571399, -0.39599764752437255, 0.25922141194700216, -0.19006184075489868, 0.5251359234559152, 0.2911414573600949, -0.13076626472206404, 0.3574883149677728, 0.03475818941989204, 0.23184768223884117, 0.12393169020366132, -0.23943655665103977, -0.1846569250987615, 0.28333069485448825, -0.07477201889758332, -0.10826916854077337, -0.25843642623905194, 0.11699132613823221, 0.5715272768496593, -0.2976458423591261, 0.011216288236313474, 0.39370213302503504, -0.015900259928508475, 0.11599536138902235, -0.29455176543289036, 0.12473715525326814, -0.06336670325378159, 0.27300770989019113, 0.32233746139214264, 0.7137809214248858, 0.17372656259812272, 0.0949755091227039, 0.055895485855224844, -0.08526067832944192, 0.07610673146022223, -0.07890540227088569, 0.03993234505745518, 0.3625409803127769, -0.2739537543697492, 0.3262800575130661, 0.361216063691815, -0.030398452956085478, -0.5670061388647685, -0.17377733856959743, 0.36458948794621776, 0.0023223591471856833, -0.28337584454003883, -0.14172021257320158, 0.22371318281799824, 0.16184916103518882, -0.056603748102722895, -0.10245569934744773, -0.10769411859545061, -0.27257181150634296, 0.4436478908261272, -0.0825253927294897, 0.34396182233520256, 0.41514165319953245, 0.2595245706332686, -0.11099204718780635, 0.11436881106615672, -0.00027248513350181875, -0.24654495300425952, 0.09683298582749321, -0.32556924156815426, 0.3276967345958215, -0.13530030236792423, 0.048789198040523056, 0.07615974865980732, -0.07806012620370037, 0.15933254779773617, -0.126542601520047, 0.23572414565948738, -0.37843026638046373, 0.03916491348540405, 0.5321720466894121, -0.2709197689297262, -0.18275870266793318, 0.14115218507996127, 0.046163217540312856, 0.09249384109523949, 0.13950282422030255, 0.16921760269331962, 0.30473321595715913, 0.10934042929676532, -0.06176975017336355, 0.18905208708093948, 0.5187971607215655, -0.03164155144863048, -0.29412900347638665, 0.3040664067603388, -0.026807638644028523, -0.5977096909662865, 0.23370656727742878, -0.15195706371890863, -0.02648393075432681, 0.07985393292150263, 0.07523853027951401, 0.20318689115683083, -0.12280456740875495, 0.13920013873694748, -0.0669125026826204, 0.20810335905114416, 0.17384209076346002, -0.23768045850461278, 0.3057560275865441, -0.1387737149289754, 0.22959357886032053, 0.09167938100904743, 0.5188420868676514, -0.06578135519321128, -0.11323190418905223, -0.005915775153757019, -0.08861388128687775, 0.2258614054785194, -0.4451353675835463, -0.2900997996544703, -0.29343738400642966, 0.26163553968360886, 0.47641656638354773, -0.025779766597504458, -0.04677287688786351, 0.019891555580461892, 0.3270627658094318, -0.26132278131557746, 0.07070308633494796, 0.27252764221344405, 0.12588682029335008, 0.056400852451502344, 0.28015579536204416, -0.7436559931538922, 0.1978796871019063, -0.1833818785892595, -0.5188398274732631, 0.14004660098021343, 0.38406791650857947, -0.0522195579890583, 0.2568681321065738, 0.44579747280999305, 0.3788583264304986, 0.45796550614509696, 0.20308302624498845, 0.017787300006121484, -0.43484670110393203, -0.06283037600849337, -0.23145211988523506, 0.5850130573773666, -0.04627655108273133, 0.02798647358457107, 0.14612367939261503, 0.004268154218335446, 0.4663353513024839, -0.1727672467406467, 0.048073595241920314, -0.2058865074535279, -0.36057341002410076, -0.17054991326204136, -0.013321501385634867, -0.10614625122260596, -0.18661678631941545, -0.39192328931827186, -0.025105172448109832, -0.4234337776455038, 0.2053147314296162, 0.03272514722014859, -0.40436001571973357, -0.07880656629165353, -0.20221344571679156, 0.08280535973303481, 0.37667824037943565, -0.518785150402676, 0.02973195396876496], [-0.039831499688637556, 0.19286062669308074, 0.05065852356020977, -0.20441485971195134, -0.09347991784023021, -0.21835639964299314, 0.2888653366032892, 0.00015050532399659536, 0.5227894173079917, -0.032646492039322135, -0.19152164128522028, -0.4251002645406136, -0.5036402404902534, -0.44389102838872957, 0.08091889410492066, 0.1309771171818486, -0.43530358285132736, 0.24316550656255226, -0.1361557707397833, 0.05224398610538937, 0.45144809603721453, 0.2574393941592783, -0.06998973157230846, -0.24079067541709956, -0.6028047530598021, -0.18464368580038532, -0.054020769960880004, -0.27978617013206153, -0.04350792742021012, 0.020546639851130002, -0.0655353945329247, -0.19263389441907822, 0.053923788349197456, 0.12232999510757536, -0.313309501782859, 0.4014325692321342, -0.030996733874703114, -0.005506954526410523, 0.19174599850632001, 0.057008429869244814, 0.2563424082519329, 0.08204493333470271, -0.16208432876684112, 0.10550187306454571, -0.31420942406093727, 0.04064471920355194, -0.01500440045068971, -0.05597690543666352, -0.04039186615783623, -0.5145256321861706, -0.1463848963352212, 0.02195057791087026, 0.05142119332174341, -0.2919928115543158, 0.33971308455686294, -0.23911663464705743, 0.26133660781969714, 0.1049322328997039, -0.1844501609700868, 0.4981369168791174, -0.3240128642192978, 0.24865010779973967, 0.264979205693907, -0.1771654201539941, 0.37942850763693375, -0.060151579279264775, 0.0753974986238263, 0.06769351407172336, -0.04632252456926229, 0.23249545095560356, 0.2298412343153769, -0.48520086244975336, 0.3682461276608983, -0.4662339224160004, 0.2807674532064649, 0.3158520843257731, -0.29673263399990885, -0.11609719826906183, -0.3101290516122872, -0.06447862463885984, -0.08395914781130187, 0.2040480264148638, 0.35473403864001646, 0.37873029073275694, -0.14953393689447037, -0.0505238248715026, -0.46349233610948976, -0.23281042639392324, 0.27327615111462467, 0.4421935167021957, -0.35035447579618634, -0.16231816661586634, 0.007298233934475266, 0.06864104253961172, -0.2352374237527817, 0.11148065883224215, -0.14038943740452228, -0.0025435356640745306, 0.1676976824385508, 0.00631146457020169, -0.11387037117720399, -0.0364268112270876, -0.027376622738118913, -0.10810027131667488, -0.06551081257462184, 0.4466596959844152, 0.15908668842886103, -0.08487818825689998, 0.19538831771159448, -0.08505963767449756, 0.3304184534247714, 0.09934274737610471, -0.03877753518456472, 0.11752778378766983, -0.42219099189783676, -0.30520089111741266, -0.3258463429835672, 0.04620574826903688, 0.4649069106614795, 0.6227389548896906, 0.17337406103693687, 0.1311880417154366, -0.4933095481058326, -0.13866543294277492, -0.2239704368908691, -0.17138703126427832, -0.029400357069329475, -0.1402979263336623, -0.5415733933162146, 0.21730748419798238, -0.30659875361335676, 0.06195109837524881, 0.5845282204963753, -0.2513801183084627, -0.6921850225573196, -0.07969751753167896, 0.3022845328099491, 0.5391274147380661, -0.3475895702415845, 0.14726406443092752, -0.12215655105698905, -0.037080361020772876, 0.7147141819256113, -0.4072782533007786, 0.07708883490882877, 0.13822553234842966, 0.30443299895709497, 0.03534920032519428, 0.08521169904052192, -0.11276483606587114, 0.06677831203277859, -0.10149237375670184, 0.16521876122252116, -0.10905564090916481, 0.09823627696857729, 0.0011834602240883207, 0.3022371480376734, -0.01982120818110981, -0.484938013428704, 0.34441739574816377, -0.24316583838714262, -0.1744383316934063, -0.1685826362315418, 0.37546412285608416, -0.5965914735328101, 0.8748063777523736, 0.28218294725881504, 0.056063080446347356, -0.02387311466193473, 0.08709909604623645, 0.14943294558454828, 0.17001450055682277, 0.16020947718029854, 0.007814784450575244, -0.06071693687493138, -0.034821981363771765, -0.04773885242672997, 0.3114302507867524, 0.16536929558190494, -0.8167002095572895, 0.17533141907829805, 0.06814408994717576, 0.0012866513325744248, -0.11110570730399949, 0.30945294777396654, 0.2691538615370367, -0.2072829767147709, 0.11918008466100151, -0.2513659092559615, -0.39254118505573904, -0.1645634432468294, 0.24588135635708566, 0.25499502665415336, 0.1415282044121985, 0.1991322437329738, 0.13293160425844355, -0.18214162570367792, 0.11567402796626221, 0.22838355282918985, 0.20789508984262495, 0.33347448793554085, 0.1950161004684214, 0.09573793402498905, 0.3022829230694739, -0.0006391045788769064, -0.24500939677018513, -0.03933745210224497, -0.19959653934111463, -0.19265270703682974, -0.034397575714952174, -0.21142149575034766, -0.09264812170653068, -0.5185818288480267, 0.06360647405736326, 0.006603356747307859, -0.21616076841907028, 0.17703720931946387, 0.24905887753678416, -0.45353087615151444, -0.2133519325228169, -0.22684173514849895, -0.2756827516409764, 0.22622982612336223, -0.05493078773380792, -0.07598632931308785, -0.5608968259530717, 0.17222357138496017, -0.3438433755299369, 0.024294743239595927, 0.07323077453510163, 0.36940471545669173, -0.36081236257664906, -0.8456364971701937, 0.043517174285090804, 0.48953474744675346, 0.33727619530383063, 0.06188239262512543, -0.1388077494371783, 0.22843515416226665, -0.2641317390492316, 0.1283890901514051, 0.1360462913735725, 0.3061370643127568, 0.7730585158232625, 0.10081147782185958, -0.1436783962246329, -0.013334423794093843, -0.4969669418504517, -0.1844321615365436, -0.11350658369464534, -0.13459603647806925, 0.050301744311353126, -0.2352491591317544, 0.31668949794386325, -0.005573563142680389, -0.005893226788936752], [-0.08601073743373233, 0.05071417662151102, 0.2195518792902375, -0.24010222170792547, -0.186839959312283, -0.08052488285671708, -0.3805122454975905, -0.23667974891420107, -0.13950879650365805, 0.22855435227834064, 0.08093254276640731, 0.043729242645429614, 0.2292430340930402, -0.045357197953971785, 0.11699781728968552, -0.03621125666955006, 0.07607959425882621, -0.16771106199205013, -0.685656573265927, -0.025413861793996406, 0.3998535436118719, 0.2646539876376512, 0.2740778130458098, 0.35143924526934717, 0.018525151566707178, 0.06359683659405951, -0.1667606849989314, -0.09673223561344278, 0.16083953736727793, 0.3297541851787081, -0.04844611982206981, -0.13813416675277934, 0.007327819322013617, 0.16191206024992139, -0.41500749615468535, -0.6244739140339997, -0.15872712672979944, -0.35312279165946187, -0.14969451210345697, -0.051870508707547676, -0.12332952266123752, 0.4084281189219441, 0.09848477501822958, 0.08951940596381487, 0.16321331450346332, -0.30869568874018566, 0.28209696477010693, -0.019954517747523198, 0.17848245698026044, -0.28552701881936504, -0.4212703175343232, 0.21649647067454608, 0.11134491152638049, -0.258437001283095, -0.2506675578052926, 0.31689559252805655, -0.3408176603953022, 0.4587805297836466, -0.2566127000056877, 0.1846464060188302, -0.08334925220469883, 0.16116503841657537, -0.16335154237653265, -0.035402851169530715, 0.0023564189350151472, -0.2685222528216393, 0.1976983463545222, -0.14951913542822554, -0.071560967098929, -0.2650009681650354, -0.7016482399343698, -0.05940121180422205, 0.6710669122045825, 0.21013713230264364, -0.012745677761684181, -0.07784680661217412, 0.012820209565073112, 0.14703512346104852, -0.3355480121716337, 0.3191026494956182, 0.2009956695384068, 0.192199572663268, 0.11318467980354627, -0.0034513051922247253, 0.19444717025346556, 0.1754506465271953, -0.10825987561695131, -0.1686816816206314, 0.0354072655874588, 0.42208168464342005, -0.34992071482419823, -0.40105222394650997, 0.05773662273647618, 0.014089143024323934, 0.038512581208186195, 0.06139162780872946, -0.06991709350318244, 0.4249029171471925, -0.4345962994933176, -0.22363370251499226, -0.020536845960112654, -0.46472621666297226, -0.046102055206705725, 0.4526287166587313, 0.016143971831515547, 0.07162350725228954, -0.3517876226046589, -0.16851744184400536, -0.10252751806740334, -0.07823014012217132, 0.3648198049307388, 0.14676447479751883, -0.3150974733962068, 0.058362485160194204, 0.14799251369957458, 0.3234767724452252, 0.44522386389387203, -0.28012034638192607, -0.22849853755035937, -0.3424746463289653, -0.06378075695121697, 0.1202389865710388, 0.28186899494029627, -0.026899139095151053, -0.0959362521720427, 0.046411856785047986, -0.21855029180599372, 0.5712307825951057, -0.4355957632875385, 0.059995955832676494, 0.5526267385758781, -0.004259760277413676, -0.04103242089143873, -0.09563334300821734, -0.0403339156374308, 0.3846218034774419, -0.6210356257707869, 0.4292843734591238, -0.4033909631521354, -0.06399477156171708, -0.11095551896088389, 0.15581557070672192, -0.454833856052294, 0.13832465441389757, 0.5694622163508827, -0.3691536851724682, 0.057048832047010174, -0.17527118878345838, 0.11300911802640008, -0.001573576966249515, -0.1859551851852901, 0.12950867385485476, 0.49385780381723177, -0.06067717233627256, 0.19356856989381382, -0.3494078911829374, -0.2758093872221495, 0.12295043653574823, 0.4188504596937564, 0.09246249731043524, -0.07890472631614388, 0.006799510647243723, -0.35237713889220784, 0.16114867187764018, 0.23836897152786085, -0.11824985986942137, -0.13670062935091215, 0.06736156118434909, -0.13087730720865653, -0.009451336183019072, 0.5893872685281007, -0.07711869315667508, -0.0937217138996787, -0.1860226850303649, 0.19993701773618103, -0.03910658535580597, -0.17335675325836775, 0.3611441165507927, 0.3983614657212782, -0.16194556374123098, -0.5235358512593504, 0.2920396602163237, -0.1824404929510998, 0.21183225459435107, -0.5486770786450849, 0.24964902402215178, -0.3268741104440262, 0.2084698101535916, 0.021905955329085642, -0.27202534219934893, -0.1024853962999279, 0.19756342373961563, 0.01989424176500324, 0.15865163456412104, 0.5478661150025316, -0.43162734977280437, 0.4403484990948077, 0.025561711472726935, -0.24126451671493562, -0.3772576082303776, -0.04616737340139426, 0.24984000913732515, -0.04016327125795496, 0.42592421633766786, -0.3948665069535215, -0.008069712582869988, -0.33843222765628433, 0.10627376044857982, 0.23928946050712196, -0.10918501087384926, -0.7140383031715855, 0.05026990384616762, 0.12875081843903577, 0.11986757460252095, 0.35312898254879616, -0.2860572789532585, 0.17900211010616043, 0.3280819708419302, -0.49871949036786895, 0.08508765166704631, -0.151296373603832, -0.026402568823971545, 0.09087870353387466, -0.14090310903207298, -0.19408386096571653, 0.0007364209594853151, -0.30797366624369965, -0.3075667775688235, 0.19772846875779998, -0.30921679063777496, 0.1771903257119289, 0.13348707360842332, -0.4884344402673463, -0.19528436504910301, 0.3202227185330062, -0.2800500980849865, -0.12155263025870316, 0.13199282553680725, 0.22251398336208597, -0.0633363837424778, -0.1689515985327327, 0.3883611738185174, 0.4957903945741984, 0.27875826118615044, 0.01532463434962056, -0.23110896911532602, -0.23673554404263333, 0.1378667767572793, 0.11913791805645413, 0.39274096424615046, 0.18986911057520506, -0.4064241638249461, 0.2832601654501037, -0.2693562157911798, -0.1092607177671481, 0.06195026317798946], [0.54738577379995, 0.8597571576506552, 0.16506709905984543, -0.04423236631836518, 0.14945857524730802, 0.24857572245465306, -0.08654270895243177, 0.49988297205953636, 0.06455121717216492, 0.1261550285168578, 0.18509206522882704, 0.11282843524019529, 0.23200372518563595, -0.17490372793415654, -0.1542836521143366, -0.31005424419041233, 0.11654306428995237, 0.2134115650003554, 0.1282416169578184, 0.4735274694332814, -0.0018999473953998525, 0.19281295176734767, -0.2984500111562775, -0.10528908159629473, 0.19227747749190796, 0.2582157144836267, -0.07381178928587477, -0.021743832025270263, -0.43096363599800125, -0.10667030873896254, 0.25163704744944426, 0.17640589552831706, 0.1403726677236682, 0.010454951879173573, 0.004196136337557963, -0.18039319573670615, 0.1998151756448313, 0.12050624390961628, 0.13700438720359684, -0.14775426725909285, -0.6089058687842098, 0.30329313469330765, -0.13112116856929412, -0.2338734231015868, 0.20002191223797158, -0.08746089423374642, 0.29171561711898264, 0.16913506107511803, 0.18812061703810173, -0.3800940226693517, 0.33421904836478233, 0.07106945168354366, -0.09538127496887101, 0.038074329093316414, -0.48363939662319094, 0.10828253439879167, -0.2825898260749197, -0.38726003093942385, -0.419846223725346, 0.3041120413972726, -0.17015045343201746, 0.421333830229568, -0.14687208093759385, -0.46814765620485765, -0.31202553214115153, 0.34705979339851906, -0.03886411987751202, -0.14583265706351814, 0.04288645401626632, 0.1371185066413179, 0.32377126349095264, 0.41100978378137976, -0.10021982770642128, -0.3738284583958275, -0.1183806586330655, 0.08394744506884572, -0.2637168805418615, -0.26424138572980205, 0.09853528372694594, -0.018514681762528223, 0.004193363923369941, -0.2086333799012292, -0.07368763969568853, -0.2530339066932955, 0.24895749165917241, 0.28573517926825465, -0.49913755611170924, -0.2531394596357431, -0.4183989411140878, -0.18367202445458614, -0.019843403893768565, -0.40352789637759673, -0.251773605645915, -0.2780614095653186, 0.05059579956149323, 0.02037038705110046, -0.20746338381810597, 0.039693403744718025, -0.13568528244160974, -0.07203223561068857, 0.4537317915764624, 0.3723511519110256, -0.3630043572096079, 0.23462089755934026, 0.2241763124727846, -0.3181422693539519, 0.2332714436929481, 0.4204144660066437, -0.31199207354327435, -0.25249680780797934, 0.27233730251595656, 0.07868032401190365, 0.14981540933494603, 0.09226470397359172, 0.12162293558399667, -0.36685986008506577, 0.2863401162481162, 0.32999488701778806, -0.07636055591098098, -0.009766472058788524, -0.4323878173621457, 0.1446483009402698, 0.16303624862314178, -0.014644144037845646, 0.30924356612151305, -0.08781280020441945, 0.16585267180945643, -0.28418536455539356, -0.0036551344280601602, -0.04140185005090103, 0.05993430568533879, -0.10367105896635025, -0.045523517146625794, 0.24125123931494874, -0.13110063127134428, -0.4439781996054247, 0.484351758401517, 0.3684947049308756, -0.3609034063638899, 0.19477078989801982, -0.13810938214391824, 0.07819046750053409, 0.060296698980701, -0.05967688797907006, -0.22086346240257096, -0.18356572880329602, -0.2607567704280111, -0.22654069797421875, -0.015664929530221257, -0.19569375118829627, 0.1841679542841814, 0.40400595188652205, -0.16276010988716894, 0.058850863539645665, 0.13660506063573857, 0.13023870024960219, 0.025062145755007124, 0.20873793818271963, 0.13451800371818542, -0.3458650528191, 0.24716509604688303, 0.2485534260665646, -0.21289931928437622, 0.00982098420612973, 0.18594794790880695, -0.05857734492739777, 0.2935260688000235, 0.6537686186386317, -0.21870374119042157, -0.3820655356619574, 0.08359747002803274, 0.19186191251275614, -0.0736759435478298, 0.3889972739623693, -0.36836116666866375, 0.19703573891613094, -0.16397262784276784, 0.47628829431611214, 0.5446472535826428, -0.21115256062193966, -0.1576036412936585, 0.2553169207050451, -0.09600206389564307, -0.009267140513815256, 0.002019919061704089, -0.5239250269665112, -0.004715303549736103, -0.1914539061011741, -0.12632713364954098, 0.407603657942766, -0.3445761638321876, 0.22890019457622762, -0.0858309928827159, -0.06856147868266871, 0.21951531869787083, 0.0798337828263545, 0.15668196262660314, 0.26243695540076223, -0.09116549704102524, -0.16917843705381513, -0.2959063674402105, -0.22617404496382656, 0.8152357001502444, 0.3449007779890091, -0.3775303852743505, -0.37016679331290636, 0.1302501921943673, 0.15370529769973917, 0.1429460176248944, -0.068467114405127, -0.04004023786590297, 0.08908388747331838, 0.02563371913939461, -0.6151744316592763, -0.058309791424101774, -0.2343069075417783, 0.04645114730190857, 0.8212722184486861, 0.1040965325012759, -0.08563972936998877, 0.2523814139286956, 0.12645877225304392, 0.12416723541705413, 0.17273567597280845, 0.5753786341457439, -0.31672843433879033, 0.12946544226942897, -0.2371499977189774, 0.15520275641852257, -0.25853766762118097, -0.12039031098163377, -0.07487557163632062, 0.2713505693162658, 0.2474961458131113, -0.34744163565836467, 0.01769234266033703, -0.21032712822581487, -0.3554100929483399, -0.04966164490860147, -0.08374597531690535, 0.6702976875301104, 0.11829864917634876, -0.37261725520555206, -0.1522065432899789, 0.28298401183306887, 0.5794648695289495, -0.44291817634925623, -0.5154357355187867, 0.5239025127176891, 0.10876992443450938, -0.22594643923106747, 0.15090856531812297, -0.7218489783210559, 0.00019652766455332854, 0.08662315294490762, 0.2534974855567256], [-0.2752943983271767, 0.036194140691848245, -0.26653282170737097, 0.0599656615311762, -0.2535119328736985, -0.11186692450346837, -0.28649841535524184, 0.18739066255103895, 0.2207999086376955, -0.07425176214427862, 0.017869905546523412, -0.40631145863487356, -0.08960614247518543, -0.02193628974893463, 0.7260506200840032, -0.3089624580906408, 0.40652084917009773, 0.2680562963049161, 0.06558013697719056, 0.47274564516540324, 0.11594158288187625, 0.10836409459075787, -0.002903114391039516, 0.3429588221174763, 0.2882654618959843, -0.19289439051561227, -0.35518971543366884, -0.06592406870745102, -0.23027566971013597, -0.04071747625384461, 0.33108404402790675, -0.1101512117322029, -0.010706978363920962, 0.0025691664332761367, 0.2440144416943762, -0.6245042353465787, -0.18043871668889247, 0.06034046785525525, 0.33481077212727495, -0.145880072385876, -0.5233028973516262, 0.18807217132466003, -0.17475468810128514, -0.33862093119001874, -0.16769129896885943, -0.05915627420337693, -0.16259252390289924, -0.6126858122581437, 0.2437070812014723, 0.35563428664859736, 0.17851392615103792, -0.30057735257833845, -0.05096006113295905, -0.01170115443075914, 0.17264550127316824, 0.198117397004035, -0.20317672072275347, 0.011746208016337035, 0.12863732338027356, 0.40499434570637205, 0.20167602339843715, 0.2104403300166695, 0.007904259458349511, 0.39136341467630215, 0.105533862974052, -0.22983030197963883, 0.38330125329887443, 0.19282225069795356, -0.11323870480364726, -0.1299143187693709, 0.08293565242271603, 0.12550845370090608, 0.06273811955438785, 0.06982594753739851, 0.45875417836669286, 0.2814733673237604, 0.045499140154002214, 0.25270663179669217, -0.2929438408543693, 0.10903134452208578, 0.5036761447964553, -0.0522968021435265, -0.24740920828568022, -0.17106527701931246, -0.29468049446804023, -0.20697004562502777, -0.10791452702151987, -0.38696531610703383, -0.0024520914163377303, 0.2486934500169113, -0.23271871284847662, 0.41913742192097414, 0.12221490772149246, 0.29426956000947385, -0.177689280200482, 0.23052815476743418, -0.2980619564370462, 0.24212714866293988, 0.0374203048208056, 0.1621353292742827, -0.320850167949406, -0.2671158350216584, 0.1583403861531666, -0.2607024736604835, 0.1339045393292228, -0.3753157570588726, 0.23143880656577548, -0.33854419984459305, 0.1547770862909431, 0.16908167212178285, -0.1857392201801493, 0.14874581761876102, 0.06820309194829179, -0.1481801136803325, -0.283019005248982, -0.5407240078942254, 0.10497883266715181, -0.43147864018365456, 0.03426634085945759, -0.060921359069944475, 0.18616126011516543, -0.09060439453909863, -0.08570756605762253, 0.20442584895055924, 0.08789863907028518, 0.09611541755522812, 0.12190390461442493, -0.4165387517148972, 0.2149301075195927, 0.15900485810435716, -0.29252223928084187, -0.0708941517487989, 0.0004559441810325681, -0.04310713524994169, 0.07048856999249387, 0.4114695928829106, 0.2840028629759099, -0.36376789468478044, 0.17541148244318638, 0.37146018133144887, 0.10976701523445864, 0.29853825719322263, 0.5612153854656101, 0.28446685984436015, 0.06576238564090943, 0.2925269823594204, 0.04192683038494648, -0.002707761397320536, -0.11290102230408568, 0.41883909132058955, -0.2255922379059019, 0.4173784136654473, 0.12797317277378556, -0.41177317960382653, 0.11014042288036821, -0.5761275895562408, 0.16909387984968627, 0.24931892768852212, -0.15649549829214557, 0.028890000210674848, 0.5429578858340904, -0.1336052386200825, -0.29939584403897357, 0.4008061412304061, 0.5531378882026168, -6.807912230254382e-05, 0.2982876772076683, 0.3717109080473856, -0.20292895669317568, -0.1312062858181766, 0.34716243990313816, 0.4647149061888266, 0.16271669269858086, -0.24287922839704706, 0.5387936415402705, -0.15128997860513296, -0.08906693521629902, 0.09197940869134791, 0.44435337045946816, 0.2360247904189068, 0.12037599459999623, 0.11275920625037293, 0.02956777938641865, 0.14397197018500493, -0.7082009437169321, -0.07717818384881675, 0.06815692775447584, -0.3139444031988601, 0.09100684127952509, -0.05779330348049245, 0.4757170215587616, 0.4334185071420274, -0.13275462154534268, -0.04258513908564145, -0.007818465460266395, -0.11653063133930842, 0.04843729182997214, -0.21084061261208428, -0.3162156877563379, 0.15784681355570185, 0.18319791378418035, -0.23289669330514998, 0.23552010858577874, -0.16907519475847319, 0.08081450512705877, 0.2173746684055691, -0.0014543915528907928, 0.12481655502139785, -0.14501053091103352, -0.05303573442788125, -0.05850627750427357, -0.1938017144694783, -0.04367801411484661, -0.42621344741845363, -0.11953416813530919, -0.08340809008426082, -0.0828920509461093, -0.07455466915361247, -0.028059866233775942, 0.1185756109423924, 0.2592906193904207, -0.19004458308064676, -0.32800920780603743, -0.29989638813984953, -0.15188968240396858, -0.1056483616066372, -0.2175664694172349, -0.353259163513482, -0.12956605241466612, 0.03845593418950768, 0.1772690353805579, -0.145199694260554, -0.11827022757751507, -0.26288012409185396, -0.008461248207395617, -0.24180070063050413, 0.16595403004992562, -0.4886598842926296, -0.08363864950442237, 0.09026024706668488, 0.02882486137050069, 0.7344668809380246, 0.09729968648528457, -0.27391705411135164, -0.032485941414884645, -0.4929833422664579, -0.028664370379346205, -0.236082230858888, 0.256236189247029, -0.1413183671715755, -0.02737084396254333, -0.17355632157940692, 0.48479559436635683, -0.08160387234628264, 0.5065044203781455, 0.21443538940262166], [0.13896967810822583, 0.11384987300855762, 0.10104720105883191, -0.5476476308412155, -0.08378560911038813, 0.24345956781656358, -0.021873962515069886, -0.3985535201868377, -0.031765567589178034, 0.4625390082023061, 0.3584801117948934, -0.021746429916638645, 0.2514321060498176, -0.12115346855018944, -0.46034363949617024, -0.27024635112950446, 0.4401877128349711, -0.08222174572671459, -0.08561310615815823, -0.08815070498067219, 0.5375647511650367, 0.4531021496044367, 0.6290871400959479, -0.03551628588021965, 0.070284055088248, -0.41277155493438, 0.40798984691208173, -0.33693970383323535, 0.053623394758343, -0.32955499239586267, -0.18914462570203847, -0.21861100335264458, -0.15808865649480874, -0.16706102378989854, -0.16022723641704556, 0.2435420378816359, -0.3225844488584993, 0.04205851235220505, 0.3210494612890718, -0.15532471851169918, -0.19101571536441297, -0.052554379908777656, 0.3324977625625505, 0.04516435555749753, -0.15450969846123197, 0.12925118135163935, -0.3164686113139352, 0.1983256062988064, 0.09698995186673211, -0.07130455006292774, -0.22721315613247092, -0.2417552710477305, 0.16097980033163695, 0.3306067961349864, -0.18075868373278772, 0.141064323476639, -0.590240193213366, -0.15769703714603525, -0.021796223855298436, -0.24684852141595837, -0.24411762456362548, -0.19278711665090043, 0.06445528922749566, -0.043772056817250944, -0.6340047738473941, -0.576386699436824, -0.1745424507417476, 0.1133475522895733, -0.7689361371351231, -0.12852466598294363, -0.14187575770901084, 0.3760522476504801, -0.100198192649594, 0.09438724461496649, 0.020367669010553893, -0.6095359205599434, 0.21938528858958822, 0.042850673521865106, 0.13341208710912897, 1.0882740226251097, -0.5626006540268359, 0.4959780886719016, -0.08898438461237554, 0.06866442670391705, -0.0035441587901703688, -0.10452827333154192, -0.15818851490702293, 0.07932901669072467, -0.41669434903262514, 0.23283102559104435, -0.11093309894860652, -0.30122159583577973, -0.12873045927184662, 0.35308110764074296, -0.15839707779998238, 0.0937150528330819, -0.21662649316578667, 0.21202074484742717, 0.1899274898739607, 0.5182392845665252, -0.04185884136553406, 0.16819830809221767, 0.017538551891761147, 0.3478695034147925, -0.18922948470953047, 0.21156232536678538, -0.05698832250015053, -0.016529569063141788, 0.02711413462296723, 0.08329811927065803, -0.025333688492659927, 0.05472619993172647, 0.4327254611388952, 0.2730491701387813, 0.2507403268211766, -0.11917138074675367, -0.2387212876727791, 0.2635092904708727, 0.24930954716833315, 0.423496200418824, -0.161007994161545, -0.07502065258929216, -0.4399909083615878, -0.10723211613068856, 0.2691041135112406, -0.12805432676973222, 0.16978915989111282, -0.06372467545005223, 0.10183659867686627, -0.30920867433166804, 0.01314228447884205, -0.8452283377194529, -0.04126654246121838, -0.4509346753203295, 0.3200384173439989, 0.22772300476755933, 0.11362409291584163, 0.42647749102455434, -0.2745414869313029, 0.49584391157183944, 0.2697067841584257, -0.07021994832800586, 0.29928086907115276, -0.29867938950955725, -0.2154356643006994, -0.16238869063443157, -0.14625724283626934, -0.2828583593951713, 0.324074381097073, -0.0876318533669256, 0.09092381795375588, -0.16385529986319627, -0.5189167425203101, 0.06149038422453286, -0.5432680439396462, -0.009409342053059863, -0.38935953450480437, 0.5544075460862028, 0.26031693407290685, 0.023483771987152468, 0.36149751496031807, -0.22669710349668296, 0.13570791897455597, 0.04642781649876475, 0.08502569161842992, 0.35767750191537456, 0.20919651828852628, 0.08033270269297857, -0.47138737233177497, -0.25207064900838905, -0.026427476392310842, 0.016556648264517016, -0.3084303262034238, 0.6714539330990635, 0.41026722158223444, 0.1735139393708531, 0.025551150768324496, -0.06842913408078605, -0.24963532826945037, 0.03676937493640524, 0.08455107615130437, -0.3583165981050615, 0.10829567469375069, -0.053931195380524974, -0.5234112585733585, -0.23261284267889884, -0.10550994180337978, 0.5301622398529098, 0.14865911467925738, -0.38406676883906515, 0.14282700404119852, -0.4201920304203492, 0.30391849218300304, -0.14401089026806177, -0.02306656637484276, 0.37902873712407353, -0.37757881757663864, -0.38283095454094596, -0.1479921479954318, 0.26634634990703415, -0.40586508200696036, -0.807176446270825, -0.13359496973253251, 0.16164052169822668, 0.3432152085795245, -0.14935792222016764, -0.10526892584078808, 0.30450273628472974, -0.5329451012570106, -0.09430560006411504, 0.05850725453058485, 0.13850441450281034, -0.12677502455738465, 0.01680560272439167, -0.6775758607060183, -0.1792734620493749, 0.1101230238043308, -0.27834435432819343, 0.006945761951268124, 0.10541573967819103, -0.08831690020787832, 0.022558191057333244, -0.2601931124403463, -0.07824969476248052, 0.15277599557768862, 0.025287324639381166, -0.16881010857333875, 0.05416792599104444, 0.20711999519264665, -0.5708275427410006, 0.33446325127494875, -0.07744049256070955, 0.1017944767336717, 0.3248209448643661, -0.3883579810426163, -0.20413188356630926, -0.07176696022152305, -0.20172215776380162, 0.5011519317969628, -0.23046492124913714, -0.17204556093318543, 0.04639453102177569, -0.32391405014798497, -0.09815810863196958, 0.08115409519130079, -0.10066888932673741, -0.03376648208290675, -0.15075628298858737, -0.42536952421135915, 0.10558472651805326, 0.506563454138794, 0.021185135743121447, 0.05472522691601011, 0.1981688759934226, -0.3686111472106876, 0.45726057072204174], [0.060835538705809086, 0.45668587503524904, -0.2132548352330358, 0.5055867770374731, 0.20982867241033107, 0.15366332921400264, 0.055952099672778116, -0.07124992433727546, 0.32892000808563976, 0.021292224752590246, -0.5433069664963267, -0.3118812939479884, -0.04178311594315278, 0.09727129529823088, -0.015291876311933213, 0.3346708210053761, -0.5434335902335501, 0.0339309818734475, -0.49741270644489965, 0.21114984965132585, -0.018137320639730063, 0.12374665712642201, -0.24212672855290046, 0.35910073197633635, 0.28577130456748445, 0.15286862024723935, -0.02903520199442793, 0.15841120894406455, -0.2040114245129147, 0.2388486263552777, 0.4564342364229579, 0.2884354319780107, -0.2052189404361928, 0.10244738511698093, -0.36055470150547897, 0.15625331773314324, 0.13354108278381877, -0.5228272497160324, -0.3236609461088188, -0.08940504610291845, -0.09426069757546578, -0.3304676454414712, 0.10368595199496683, 0.0626530702052147, -0.04625334867687867, -0.2098404270214075, 0.293657809756972, 0.44594117208604805, -0.1376627824803335, -0.1646374107385277, 0.1330639897876011, -0.09909299738561245, -0.03589465871895734, 0.19759825648839793, -0.5339470784887462, 0.36390968833432785, 0.015444121289624949, -0.1214009718662808, -0.023752696742660093, -0.006130531219187109, -0.4734105719580745, 0.40889860749208773, -0.017023669749919677, 0.12249674454632195, 0.2606408044901112, -0.27112276990350287, 0.12561269527290156, -0.07040250120491173, 0.23627905337191799, -0.5863427755137384, -0.01951260660062407, -0.1691553573286269, 0.12589350749175973, 0.12091961941614911, -0.19945964077033773, -0.19088350400543921, -0.02958967622362661, -0.24437241586257638, 0.2262382531017278, -0.10900003626236122, -0.8084066252783719, -0.11832955444523442, -0.30065290348350515, -0.4530645279830481, -0.33709070111766976, 0.03453867626508382, 0.3620677239561796, 0.0836122094671991, -0.1709685192245365, 0.11855358699586314, -0.12552826487070737, -0.19616434857000298, -0.30505510091041504, -0.4875062381945916, -0.10885972846575775, 0.03855652462422113, -0.034004662384147274, -0.11320679379742356, -0.2544158404533759, 0.17373988699557255, -0.35998031712859807, 0.20178303289732874, -0.2863760213718058, -0.21198712386978946, -0.4039813683156769, -0.1312333960905019, 0.2780463901138124, 0.14036298766635802, 0.2699394267337799, 0.14474518282182694, -0.29957025199522097, -0.09165829716658554, -0.22433095917305693, 0.37344178226740915, -0.31829393419330904, 0.2531369176876516, 0.25419997315870235, 0.5104400385118818, -0.12424365177637622, 0.19785047293661046, 0.6253204447146635, -0.17988485754610772, -0.43024126995072226, -0.5361795014551408, 0.19179259746663935, -0.5251588968771786, -0.09241928528156011, 0.12174852131242239, 0.050392687921064404, 0.12356756788227954, 0.055160603419494365, 0.3589353866403392, -0.25285935057874864, -0.1930073315996173, -0.2115159579502785, 0.23183550595595245, 0.24411939331094382, 0.12111607337578807, 0.3234486342676568, -0.32152881285407514, 0.44832378562783515, 0.41518853820408747, 0.1868639839539184, 0.499873489450582, -0.4547236498198495, -0.13714143296725406, -0.19865224469999876, 0.19805577458441972, -0.2895372376136474, 0.22502511537163566, 0.3777246438653784, 0.18609109148214178, 0.08084817997629741, -0.28499468478960743, -0.23639024042658785, 0.35100354879613627, 0.22663441824419917, -0.017379306580908933, -0.11027422603275719, -0.5657209289848827, -0.29731269934339005, 0.5355375694321363, -0.3502132855848765, 0.044772912166096954, 0.29136739732409417, -0.3433966029409935, 0.05921177414406875, 0.26021075096881535, -0.0023552148869594503, 0.7968565054859419, -0.45593895858571126, 0.2878236274543907, -0.042889718200807544, 0.20378899556622773, 0.11800312496013401, -0.19257847790727106, 0.06886950631454565, -0.5073099620436352, 0.1668288608354895, 0.06930601398393868, 0.171140549157446, 0.3088782361935518, 0.1018713934022057, 0.03785657424628508, -0.24909434092470137, -0.19062411001735594, 0.33251693760778994, 0.4031394940771452, -0.044372044330206244, 0.002424581591386376, -0.24995004542137858, 0.32334561849261473, 0.18594632321280707, 0.5389002109323154, -0.2459369120191958, -0.09676515042326907, 0.0665439692095831, 0.17692888317549715, -0.05596624913916451, -0.2368574933153242, 0.24125844591953588, 0.20589965422288742, -0.2554022881956894, 0.3805349847355454, 0.3303186783565592, 0.045487200974318104, 0.02426433903966244, 0.16244592853635326, -0.23565794966999115, 0.0032381862768421483, -0.6021249136600121, 0.2257673418767071, -0.4239612353378619, 0.4211727181542358, -0.08728406556845363, -0.05438355952821781, -0.18390407840262693, -0.08723699418323005, 0.3874616866565365, -0.6756752860564247, 0.3519712121219445, 0.08158100911110382, -0.3270108754191879, -0.29427524217035567, 0.4822537227678633, -0.26488483980953964, -0.30987706719569164, 0.32382110827576316, 0.09143516601281562, -0.2757267418582138, 0.03930705906011485, -0.2869423876463446, 0.30158953849061365, 0.28867809736507344, 0.1251933250505495, 0.09384418647226925, 0.4927613359150754, -0.0107852302438841, -0.32047385175754095, 0.1296662830760489, 0.5763063713097757, -0.28648097225780866, -0.08676886690524914, 0.12190436697921535, -0.024089413682410396, -0.27330803412037663, 0.3055142542649439, 0.637591690220146, 0.0638482842146615, -0.2574446084268339, -0.41963658041187185, 0.07351743763145481, 0.3001654770817205, 0.13856044794074804, -0.000761857575551473, -0.16894538756732944], [-0.3009757640467359, 0.23403098557517144, 0.24109135038097929, -0.424499584327749, 0.4366252708317506, 0.17206233663090875, 0.3743125966095892, -0.36982791370310203, -0.3791724990716811, -0.05809614319180361, 0.13753433055637904, 0.500212715909241, 0.19655008967275753, -0.06662524526463091, -0.2775695343819924, 0.3288665475024733, -0.26898462724667965, 0.4518688301745337, -0.07040925894025521, 0.4504752382846632, 0.18789382618868924, -0.02923853610069856, -0.14579331981628185, -0.09144403709450268, 0.1186330490078185, 0.023387764894019485, -0.15493760445227675, -0.043532884810714344, 0.01301181158006682, -0.5897834927535266, 0.1332895358630988, -0.2802532019905189, -0.3193505701410752, -0.462821721589949, -0.4967310620278106, -0.3646150811229887, -0.19483257848649968, 0.5496626561228618, -0.142612794844253, 0.052221912916824105, 0.09952971059027542, 0.032360650254992095, -0.014272191064395413, -0.3342617628152893, 0.4139721992068596, 0.5196125468327375, -0.4677336873069686, -0.28509057593434656, -0.07954779248011916, -0.26873881714588527, 0.13728964933241236, -0.19627415101678006, 0.6057005367288786, 0.323091770318647, 0.0477387643995427, 0.2800835562780686, 0.31197647280053026, -0.1672730383699016, -0.22874270943497427, 0.022101288237962532, 0.24247047252372367, 0.035019655124561795, -0.4331828534486293, -0.21694384627899582, -0.022905106102038768, -0.01499633093791954, 0.5476887976114613, -0.3834098391958534, 0.13081178092863036, 0.41399359017798176, 0.642219086850341, -0.1053973772881338, 0.14967728169561728, 0.15364923790758905, 0.05146562742855087, -0.010630880072357775, 0.11955461270002084, -0.6994669391669706, 0.19369749861581598, 0.019578475300027407, -0.05835294381094643, 0.5600335911157018, -0.19579173931056765, -0.1110226864467768, 0.5566130781170706, -0.23343410807281306, -0.14874634040444024, -0.04333797513896377, 0.23392866159075226, 0.05542789470416713, -0.363284584119599, -0.1530300149648816, -0.15006202637536936, -0.028261420656484043, 0.107984871932001, 0.11090705163663583, -0.5013652954475891, 0.2885070788250221, 0.09019107859170997, 0.3868282572970194, 0.12794308757673992, 0.30977919878686166, 0.11975482047794556, 0.37697241039890295, 0.1415413820338617, -0.032479837967040424, 0.6394604127554755, 0.23313655468617206, 0.15678614851607883, -0.3518934628473321, -0.35259659961229617, 0.08405633454792008, 0.03228384831062052, -0.17081267621597246, 0.05508591771361319, 0.4412507614415067, 0.19190152527108745, -0.3011332257521639, -0.04720168344651357, -0.22195322471205037, -0.11364499182614804, -0.1153162515902936, -0.12923435912665954, -0.33099661976186945, -0.03456261887982138, -0.16089826796984705, -0.7890288196152334, 0.5642908711683234, 0.3013740752156697, -0.09570510777698515, -0.001419468313565723, -0.3248570241335847, 0.4698103458619063, 0.5407373143925155, 0.05649814333894776, 0.2776581336598521, 0.05314237996197842, -0.38394369712375553, -0.11467206657299564, 0.043809637988951954, -0.12297326451280335, -0.06823274650157751, -0.046205050921053196, -0.013424396674005239, 0.011279773191955764, -0.28466356854659014, -0.19383464090162567, -0.35102111208255876, 0.2775613418853078, -0.5824814122220747, 0.31477634442509406, 0.37683497394634474, -0.08220949693688279, -0.728336267029247, -0.10087786752921427, -0.012538968149984618, -0.28663286185928843, -0.1428420453962552, 0.42727081595073785, 0.1807636566631753, -0.24935901638635893, -0.43794967720400857, -0.08939869167665879, -0.060316927062520606, 0.1388128296344109, -0.1494956489800349, 0.13234950899285045, 0.5365176797635774, 0.2272070253512644, -0.01027645616980251, -0.05343925811463849, -0.1075149380696214, 0.3320160969002514, -0.1948613912808562, 0.010356125336952151, 0.014068710168698102, -0.13768714690258324, -0.376756539065539, 0.09143104918776344, -0.021335296252553364, 0.13342004803252056, -0.12763077300833248, 0.3447249247279337, -0.24264816963114033, 0.479287934478269, -0.4713343630802533, 0.11788049221375381, 0.1353406470807105, -0.20634439745047733, 0.12137018169749195, 0.3617820360757078, -0.6112855482880544, 0.11910428799669225, -0.6858100397031158, -0.26612415288706387, 0.44229876117953426, -0.15726413298671107, -0.32787166393204864, -0.05227130144232405, 0.5815939688204348, -0.5076273824466141, -0.28707567459061606, 0.41893127306746725, 0.5117845637302665, -0.027865057666625993, -0.3438773901462863, 0.5765374185817701, 0.44543443141752376, 0.18648300631678807, -0.22332027286404194, -0.014787295584762794, -0.05770802737320655, 0.09224157857065833, 0.39750484908168987, 0.24462119909608604, -0.2896548926326422, 0.38665947546618984, 0.07195313008315792, 0.18994568540196394, 0.4152586435852441, -0.31972628413898757, -0.025218577151758497, -0.14318706049198937, -0.4201714849486649, 0.10151882803566552, 0.6973908115013603, -0.506599470851628, 0.0047308724013497925, 0.17735211390708577, 0.024670092216152264, -0.0489121326266677, -0.3604035326386075, 0.05585292772883368, -0.21700494375305113, -0.6162219951181414, 0.3296011820576496, 0.26218252725958835, 0.008866955852317875, 0.060620522330236216, 0.30121313438248704, 0.05940904491765316, 0.2508020870718309, -0.071055309290309, 0.37074103435878003, 0.08972055704500786, 0.05945716850827565, -0.35880364916927576, 0.0735933509346558, -0.22114552528670312, -0.1803438388710501, -0.2178726140878282, -0.29317948004476324, 0.5864873691879199, 0.37179308677999395, 0.5350322952768899, -0.33736872840648646], [0.02278564738914843, -0.35441316244884324, -0.20452952452496123, -0.2512997488045344, 0.33819582644325735, -0.09830736373223735, 0.2841970794350261, 0.16743642192355093, 0.6374836374516677, -0.426002788366245, 0.3492356593051554, 0.32275093286162004, -0.27167570810653685, 0.2764746810026999, 0.100492137558506, -0.07754695040496778, -0.22765673219248703, -0.19726447462251584, 0.5756672190380295, 0.009162120405223958, 0.21697995438399162, -0.21063894992304394, -0.21869202913315858, 0.30213571600147454, -0.37658278844583315, -0.10349403801086984, 0.016565718089011087, 0.032926520586019484, -0.058274314812032504, 0.10619370940807894, 0.196956726548551, 0.19529786089944262, -0.27084657129185746, -0.07670951599615859, 0.3299067049455315, 0.2584684231326749, -0.38345835166254266, 0.10116315492195926, -0.547972043648578, 0.01621752369153126, 0.5182824338078155, -0.26726141567501444, -0.22233968699985857, 0.20351345139840313, -0.41639022332455494, -0.15925524152698384, 0.1617060869991211, -0.17715320218207786, -0.07011893040974852, 0.20512132021954546, 0.1109080406451294, 0.08128219143752774, -0.08796400273033618, 0.09527587305431759, -0.048545734783573144, 0.12551746410019, -0.13444582955457274, -0.06020385768933817, -0.279676779969772, -0.007749798836963612, -0.2193122207789407, -0.3127013820877794, 0.07563399003261478, 0.06531918929326921, 0.21446866725077102, -0.11173413142602158, 0.11390912650778413, 0.14996114637924654, 0.11240567138773441, -0.22756395987713654, 0.05270264232745392, 0.10479141535146237, 0.013951281994232423, -0.5827121744406356, 0.038334256703344546, 0.6274341445779922, -0.10299824039875836, -0.20311409283296283, 0.10963895463478945, 0.07127179604351327, 0.3393246056057873, -0.3560368113257125, 0.1941804842441985, 0.16192818421358743, -0.0363609123792476, 0.09116819431529272, 0.29289779775669783, 0.23243590436399142, -0.3154118746902823, 0.22210727854521378, -0.025006889863720336, 0.01621246506069068, 0.03640771811664322, -0.05053475001699322, 0.32130179958173627, -0.028790542601104033, -0.3210465752134933, -0.11587960986184133, 0.0699246730837034, 0.34365362482205924, 0.17203397270835014, -0.22993983009884061, 0.6748574510355542, 0.07342353070909471, 0.3495809615546248, -0.04864379173680295, 0.1587136407745833, 0.2193018958377524, 0.33664052340949197, 0.2958641847368458, 0.24508775556007073, -0.08152681664141453, -0.16934969962701293, 0.09628304138219906, 0.27546624881003634, -0.05861367747093583, 0.29457823772536834, 0.4185958866718778, -0.26618009358404293, -0.22878932096182103, -0.0416064177764808, 0.08411708680891143, -0.1407869010313647, 0.3903605623092066, 0.11928286219857454, 0.0032877059762737356, -0.3762692813845153, -0.3728926579230433, 0.07865618959760924, -0.5807071103151505, 0.2725906224938519, -0.04800725386971024, 0.9009932598659133, 0.654713157679208, -0.03989324859412836, -0.035704448350088056, 0.2786099904765072, 0.46308193034495165, -0.45702435626610083, -0.4864233289168142, -0.16812262553217197, 0.15343224272561704, 0.11749075038820249, 0.3055502610271913, -0.3347041994250376, -0.6317806182063643, 0.24212550953634196, -0.22348202706201425, -0.5557958972838621, 0.03693643984234956, 0.21374088029992425, -0.041496484158332195, -0.1290618864063659, -0.050621947255192846, -0.10530795294412156, -0.3666231794379943, -0.20726550877615513, 0.14677938392669418, 0.09331387241090006, 0.043673079639863735, -0.26785703346924483, -0.04423706494966939, -0.6056787529292349, 0.0486170377799778, 0.40421787653955765, -0.4096488761706875, -0.17134788323047617, 0.09315721975587535, 0.347452996547371, -0.11983160221656741, -0.1962156415785972, -0.5556571042218973, 0.03451702786114331, 0.5483768112546685, 0.0725596498271753, -0.00995879648304108, 0.09169674865431107, 0.0037217272234599725, -0.22129387645763357, 0.2280505638157012, 0.0714320880060069, 0.022215797304092556, -0.2634812745784174, 0.36256305871463074, 0.19263670111654982, -0.13842342776159605, 0.2761000854242092, -0.13245847791910004, -0.20138145547072694, -0.20740486603407443, -0.4841881834153729, 0.13355241865127063, -0.5293245336901642, -0.341156248912539, -0.5788974130642895, -0.03220306694537636, -0.03905709861968973, -0.09224156929503978, -0.2833823234341598, -0.31960652928100886, 0.13261085204515485, -0.15063574864476856, 0.09248418762844163, -0.249656832783454, 0.05286376696022565, 0.364229162406031, 0.15827046162141134, -0.11321426255488903, 0.06636619155335312, -0.061946929014365486, 0.004314044752528392, -0.09794532339141315, -0.04538512869820775, 0.05197530611201623, -0.27487362072010724, -0.2716433910988413, -0.38045208132333647, -0.4585951095500391, -0.3414111620662256, 0.04796549011964092, -0.26167089865368925, 0.12517679302285248, 0.018015241545098433, -0.5349725532364097, 0.18546495776697064, 0.22453584140397836, -0.27320671444758093, 0.1269366561667486, -0.23736762036684322, 0.016515959947867438, -0.35929072451264743, -0.4955147460295332, -0.11581535486531552, -0.041851194658520816, -0.12034784463819224, -0.3303693664825717, -0.11476643393988863, 0.06868962492373656, -0.013504386997617935, 0.054226752323148074, -0.1907531219097802, 0.32522584198186427, -0.31692973491721177, 0.14364656856559035, 0.3255416463994684, 0.1417203505486632, -0.06239763324083462, -0.15289420386722558, 0.29143430989959807, -0.396462883075433, -0.2587139023515622, -0.10638276958401731, 0.33880179109104924, 0.10707258917753042, -0.2749181682080985, -0.08495890270149083], [-0.16877609110672978, -0.19573267785687076, 0.26117396153637307, -0.37661531755181477, 0.4404972577641957, 0.23772875740322713, 0.2864142986557572, -0.12362111739828847, -0.042973223762889604, -0.4140529161566492, -0.1454779003999179, 0.13929116797268407, 0.3607375644348243, -0.30917314594821627, -0.0978691777024646, -0.06408723599383781, -0.38816129739622984, 0.16341664933631977, -0.19450848314862917, -0.04527071678004805, -0.12580215988250576, -0.21055686700418946, -0.0012044727030299568, -0.058322992124756244, -0.10437597310159559, -0.19878583204473843, 0.09939840641052292, 0.45961810030795414, 0.03187971267675225, 0.2703187481389967, -0.3812637828646454, 0.05071082043129406, -0.30397293782682044, -0.4085767609541173, -0.20394210282979397, 0.33331111137113634, 0.2661938432350341, 0.07773927517812727, -0.4239077433212994, -0.052331616763414635, 0.06874607546450746, 0.044518269878589235, -0.5067901825258803, -0.24794062628303248, -0.01021097317970172, 0.16478589816243974, -0.6097651021315339, -0.05043826081251564, 0.037108154215860154, 0.23366405532018958, 0.18815151847878306, 0.1686243733705744, -0.21543373863774432, -0.5349654011741517, -0.11217031413611556, 0.2736603558327648, 0.39042031236765756, 0.18352546361005978, 0.11757191524198342, 0.10110625011373678, -0.14927181927985206, -0.03994271042587216, 0.46441711574757083, -0.2559271269944104, 0.44662120638156194, -0.08410458053052214, 0.37048790205922005, -0.3876358590095969, 0.160513106454781, -0.20627698418500365, -0.37817763729341475, 0.06934038774619711, 0.292992795893415, -0.23965383079529526, -0.4213622689658282, -0.014118138160680973, -0.024206838897979168, 0.15188485794587692, 0.26963162024037995, -0.024327162693232943, 0.5130401055053596, 0.05738452583768683, -0.10600650655138825, -0.4471232004409626, -0.07060596840340462, -0.09623437385894988, 0.2720956968458579, 0.12621291852561162, -0.32812099079701895, 0.04934151341798773, 0.18336972643876337, 0.4190011071871682, 0.2573450840910077, 0.20576070135481392, 0.008634236703693222, 0.10290672402875028, 0.33729780623622974, -0.37657104169478123, -0.07644104897857051, -0.21006206644168815, 0.10629196878127757, 0.3428369503243023, -0.1713491876013496, -0.6576678321959821, -0.11959665025604711, 0.2499570788116901, 0.1552387090085373, 0.11184248861297887, -0.07738848786148038, -0.3534571841710938, 0.14527605436940894, -0.228381652652732, 0.596726899185179, 0.1592365217692367, -0.14323384258421817, -0.1694573326889103, -0.028951457726501324, -0.05271660501452549, 0.2945979861772153, 0.054267038345989595, -0.21065680212380591, 0.5250915122392511, 0.017318563823848027, 0.22528127321159278, -0.16770595876506514, 0.09888236030079292, 0.10187007475271966, -0.5298087052864278, 0.5587153544281935, 0.36754002650183315, -0.11691794940476587, -0.30805141459166785, 0.08239665578650077, 0.046098625290372355, 0.10422785007151181, 0.04824046055974952, 0.14327380528867634, 0.3837553360035491, 0.1561970810683806, -0.2841123795603871, 0.381226434356266, 0.44987330867770164, 0.8544401876416249, -0.3039570922225783, 0.06444621250600112, -0.5684564224370602, 0.15510701978719119, -0.14538703046825352, 0.5397525232865747, -0.21478711441289738, -0.4735897452480938, -0.13881880487758497, -0.54891960348069, 0.20111328614277962, -0.5744072992814215, 0.009595954785420956, -0.5757701585535325, -0.08690777578138534, 0.4581902351716006, 0.09788748209858072, -0.23098787375237304, -0.0045160824773953084, 0.00432106181188515, 0.13022713945586026, -0.3783344507809367, 0.16165806782991737, -0.7580277865743669, -0.17624015814776356, -0.13417193704344524, 0.176853931574351, 0.004148229394816996, -0.3986464136141524, -0.2692767516128332, 0.03871285241316962, -0.023558740561884693, -0.1601228526075729, -0.13192555819194596, 0.19600804003133399, -0.14817416409073167, -0.029171191765740165, 0.5987586179362779, -0.3776738130345783, -0.5052265259995462, 0.21839584273394236, -0.18865919661743577, -0.07130406327717728, -0.21977745228400553, -0.06740439075134151, 0.4598334729757994, 0.22363210064444233, 0.24237618676091124, -0.3887078275890489, -0.33505313953495336, -0.7822987234795343, -0.22605280930496302, 0.25658462205276095, 0.14377167525280654, -0.06533213385097517, -0.0032986482453651986, -0.18585714255745767, 0.05886859046060805, 0.21717165879569558, -0.4451727319253544, 0.0798911088450818, 0.25752381021017723, -0.1160414232552525, 0.1888367785197557, 0.7826013784271243, -0.03482151455640721, 0.11064131068662642, -0.20764772148508132, 0.04035652259826018, 0.12934018602051384, 0.049792038452007116, -0.28302311033197175, 0.06479409066167534, 0.4090554122913568, 0.1114655728419825, 0.2633355685675303, -0.0604537096319712, 0.19366895564341122, 0.06198059576432314, -0.2520886498919913, 0.0984708840569678, -0.27097495260515014, -0.17702279044596556, 0.05678588615520127, 0.09563138411558901, -0.3305056263438113, 0.28131333055509467, 0.14894952436068304, -0.1928213019788564, -0.4343606119449494, -0.0478329151131403, -0.13054650729087294, 0.0319782145015015, -0.10596585868549442, -0.5647041728729927, -0.09864707738802804, -0.08291029086161804, 0.17030575776544846, -0.19348278104505573, 0.4736619707600225, -0.523427477242343, 0.36261679276680864, -0.05758288162719172, 0.23118492998870327, 0.019143580082572182, 0.3229743353175149, -0.10861488138781047, -0.2918163928926055, 0.39339684561748006, -0.030269648590199028, 0.06236949021100394, 0.33927526701109534, -0.28689769000897786], [0.1743066828314065, -0.1545281984184013, -0.03576896736280748, 0.018536642372395024, -0.4241312201528056, -0.22260440037479745, 0.37065993878347436, 0.23667442595841223, -0.024033224396013488, 0.05890559085794722, -0.07259192218142367, 0.36364446068843226, -0.06148209375662397, 0.05897398892666646, 0.32797122124359623, -0.2222705508663981, 0.4413515933303677, -0.4363199313542324, 0.4445250801066308, -0.08924187910245725, -0.05926098112634884, -0.5135005254211662, -0.11760642985314942, -0.27692489095310924, -0.1760638757199879, -0.03818533997804195, 0.2649432856979081, 0.04594021036961119, 0.08729021645665987, -0.29938194294713016, -0.2560774362246016, 0.47072191145060815, -0.19401641721824553, 0.45827634549731033, -0.08844119330933246, 0.010319455210447824, 0.2879956155008396, 0.3362432675552775, -0.03879571544939212, -0.1235061160106181, -0.006411933190038375, 0.10011996270925028, 0.2563174072526843, 0.013091206452626972, 0.15645049601659164, 0.4478945408293381, 0.09203619925632366, 0.09199098827330163, -0.42795886532739924, -0.7171587625748689, 0.12390288399948043, -0.03874144923483557, -0.13412763799397168, 0.05784718771353159, -0.0306881062870419, 0.31747297775548317, 0.011606158599623467, -0.19535635534525123, 0.2647888472991215, -0.04717448622622439, 0.15382865262570464, -0.14143690944560253, -0.1939708087784536, 0.03316897832879383, -0.006282915815185064, 0.14226023228186327, -0.08479376450730734, -0.5185039518762604, -0.12616645416945507, 0.23081928533457013, -0.07522745827285164, -0.08081050533854654, 0.2753628823298968, -0.2035467782973866, -0.4325612232928485, -0.054396559428178205, -0.12069449940603029, -0.2721682684428352, -0.058292086933555955, 0.14868397927522256, 0.006204352893651972, 0.07377091113997233, 0.5067063823451511, -0.10900967741978342, 0.08773163125863372, -0.12448534806622098, -0.24753572969018028, -0.17364315802110203, -0.1216528986792356, 0.10193987645479853, 0.6359021294747554, -0.18790626713888342, -0.10073514039239864, -0.020003712155053033, 0.09926353418769847, 0.06577683362478123, 0.348482411957061, -0.656283195228672, -0.6607114340110868, -0.13140733477248362, 0.31297828491326474, -0.4528072672438982, -0.8234539412089591, 0.14654665243517637, 0.08312096784192485, -0.29007966936263996, -0.2801467424750005, -0.26217067833158436, 0.030451710925642122, -0.1606783903592419, 0.14505463100563648, -0.8029384243633672, -0.24782176361225872, -0.32192889495014004, -0.06169537211725618, -0.1390067670537488, 0.2322929939923168, -0.5201293013812173, 0.012780856205736863, 0.16144260305278016, 0.5261703579140876, -0.1455159728610503, 0.09734311752214227, -0.5050128096719306, -0.6752391936158251, 0.23670735145293031, 0.01321237439621803, 0.3155408157754153, -0.36808340116027466, 0.15389234837059848, 0.5084664599331461, 0.1099916044608754, 0.0877466444513763, -0.00936396889936821, -0.41590291422933867, 0.37444717900604024, -0.17480217980607385, 0.15081938320209737, -0.4445453437347534, -0.31667314421987897, 0.40793875190318957, -0.10696385159836234, 0.40319902713745404, -0.007175533611789146, -0.4949625705049224, 0.2507527613242492, -0.15979885528934767, 0.20454596806004632, 0.0008218016302572297, -0.43545676395061217, 0.033759173447862445, 0.6047133253623797, 0.12813917795666704, -0.01835282180507302, 0.2864617803737416, 0.0700309465087969, 0.046526718349901935, -0.3184806250814543, 0.07639324566881879, 0.2787403841482537, -0.22384234513990992, 0.4048229754127779, -0.03127668393103303, -0.2555585863100572, 0.26389165524044167, -0.06886483219587784, 0.20223229953212624, -0.09540264200267644, -0.030528282548669513, 0.14960982859769256, 0.09369101111131288, -0.5621831976825703, -0.30370087581642874, 0.2596473223543978, -0.04492570197151073, -0.12813513497283677, -0.36986996755487656, -0.3099825244756011, -0.5546109886199194, -0.027124053106540515, -0.17056275239331412, -0.26127169642904974, -0.014898538909907156, 0.09223261322981427, 0.580899415744131, -0.43165530455095485, 0.33776037200764825, 0.2767497693171479, -0.20985195521573236, 0.038400474389041546, -0.11687199597765681, 0.0623663293486236, 0.4217502969311685, 0.16400156727323512, 0.13220034714067008, -0.1076838738517215, -0.4195829103488728, -0.059910726529144365, 0.3433083826000768, -0.43048704160627005, -0.28946675083950296, 0.02929757080875581, -0.27779742205873553, -0.20424830127176807, -0.10804866962656547, -0.3823526691466368, -0.2543767041761898, 0.19813563998237774, -0.366621684575335, -0.43458948637778194, -0.16663262296440837, 0.19972280046458538, -0.039349056962909267, -0.11391032048822053, 0.019611376768631963, -0.47763906715673426, 0.12507865839541293, 0.11150248947069388, -0.1220148063211874, 0.27183520473087364, -0.32895419816641747, 0.323464849115243, 0.032602339360844376, -0.09799685308476223, -0.012745695530879968, -0.03712456573779628, 0.32843159421642093, -0.3148426483634902, -0.19950976101828616, 0.3002084786957113, -0.16969157858955236, 0.2523473187524731, 0.4614640905213183, -0.11906336488574262, 0.17665398829725215, -0.3304239321878081, 0.22085732385311652, 0.060685311086327576, 0.1296770110957278, -0.17071416722292268, -0.46318720430306404, 0.13327752335221346, -0.5606538626294767, -0.08213478177977009, 0.2540938751095603, 0.03651620816919905, 0.5331938159123198, 0.274355514678236, -0.17630728704323426, 0.01250897858544636, -0.010782479081880542, -0.4281064907582469, -0.27264397810997065, -0.14664878615891414, -0.5654626128310984, 0.006337221224176294], [-0.060080241744795, -0.4537571826554779, 0.12475949537927632, 0.19336618940963188, 0.05862824204713214, -0.1017626438878982, 0.17282381572802907, 0.1991029883440456, 0.07013844101141628, -0.23430823851864518, 0.0782042034806486, 0.3276288411395506, -0.1676010755198207, 0.5937236080846031, -0.15136927751019585, 0.0051940676032432576, -0.18458779406500717, 0.05210025007113514, -0.4842648835979681, -0.14994459520101905, -0.2834948015431439, 0.05637705401363309, 0.28148449466417064, 0.18387621587726075, -0.6668499495590414, 0.5527055430990196, 0.09839250587011797, -0.22306017744790033, 0.04730731636138036, 0.04512246527487098, -0.18809603572070138, 0.04161042346077011, -0.1585607010074828, -0.11993476554200175, -0.19483490531002273, -0.40184447723583233, 0.03093234069381559, 0.15925911247074528, 0.1562665711472473, 0.21638693105468682, 0.0906495296820741, -0.1501816416698338, 0.2500567644008449, -0.36300614958881466, -0.255331163677132, -0.28429514279963064, 0.2997256748468572, 0.27039734201538557, 0.14548698057451814, 0.3006708494634329, -0.23921329745305975, 0.11014285189539907, -0.04664772652342921, 0.2395633945888662, -0.05833428838472483, -0.09512335135516262, 0.13816087892841467, 0.23828898706775498, -0.1852176708086464, -0.005525953302329674, -0.29726354788507636, -0.7095086641697782, 0.0506352913520156, 0.17831482895102727, 0.06797778117996948, -0.5445826477376612, -0.09978781894721522, -0.6177245889750206, 0.3877112447332508, -0.306369232213094, 0.33872268795761173, 0.26014433617863036, -0.2609935249657666, -0.306266253793094, 0.105234518746006, -0.24939130603294843, 0.03730843925123041, -0.14619324162381478, -0.502107683492237, -0.6043573048254458, 0.05478505310758982, -0.1636806621145963, -0.14584138015036618, 0.19095076751597104, 0.33325416202883534, -0.060588495159255885, -0.09686523446940708, 0.1507991009588161, -0.3768903545870223, 0.06410494130520368, 0.1364029811477519, 0.1789323737884894, -0.5387095448950023, -0.20426937183428334, -0.2406625632153938, 0.029795016109195164, 0.13616672053250994, 0.4203083123151661, -0.14614626194332966, -0.1291300542067901, 0.30821418751454716, 0.06303045796063651, 0.35933485107589713, 0.08074061443682654, -0.30873402764524366, -0.35927847707419724, -0.43464878490983133, 0.19423382309843987, 0.3480441501697231, 0.5204330256597735, 0.24107915257844623, 0.3154494680273059, -0.16945997146840397, -0.3298917435073073, 0.22882722997862595, 0.12699978814229435, 0.03511529551339041, 0.10181847667679922, 0.09128033998305816, 0.3534904927640503, 0.3718897725198535, 0.14306156728250913, 0.22813704870245216, 0.14590591436255687, -0.13850780465985987, 0.2134922002018966, -0.3958588244038212, 0.2781729811295353, -0.3150167918342669, 0.07376641644688585, -0.2504609753246248, 0.15161656130653514, -0.0164869745445887, -0.4476960479960934, 0.1126641095672228, -0.1563219233057999, 0.26110622045969734, 0.005250720156586011, 0.10449863375136703, -0.2640334675989192, -0.1548876128357129, -0.13179261087334665, 0.2506703518925373, 0.4718699081281505, -0.2143980853074212, 0.2946742801676448, -0.6207214010155948, -0.3153433210596215, -0.27374323561723507, -0.38818663461733793, -0.4498619634230498, 0.10766250715261234, -0.0737856752478512, 0.11735114233172911, 0.18180096450491948, 0.08460907606073406, 0.16840959573472586, -0.029961065714676195, -0.3217160755220376, 0.27417151061436296, -0.16753496416241312, -0.24727764383934966, -0.050836102261801776, -0.26479500499094705, -0.12351852217995506, 0.08699836709788676, 0.09025480985832238, -0.25650267237739216, -0.13595912370259916, 0.3128766021174139, 0.14735873101087876, 0.5758451110714251, 0.32803351339673475, 0.31697542668045703, -0.39707979837421986, 0.21711786230269128, -0.002436494201220701, -0.16154534808890741, 0.03926456991224402, 0.24823261118793535, 0.13234858988710455, -0.24300246035813441, 0.2064977966979092, -0.18919136995066507, 0.052941462241167685, -0.09699321815449574, -0.05130638065126225, 0.22028336746863053, -0.300739970157583, 0.5415775384225422, -0.5133942917735794, -0.15416691379196862, 0.10320922809113271, 0.17003427766733298, -0.02665411197347628, -0.014841025840446881, 0.1201914392605471, -0.07303427092402165, 0.3810388396068211, 0.22705453270178566, 0.24710544876568968, -0.2619975670791926, -0.028304983281005426, -0.07262357699880666, -0.26947441620048856, 0.10159255904785941, -0.13429221059737548, 0.19244881896147675, -0.3041539541590324, 0.4859700625372368, -0.2516093568722631, 0.06692854465986225, 0.22544291600169483, -0.14303273708012104, 0.24544246710819279, -0.3550858931739303, 0.39932078038868357, 0.013643617544977523, -0.18361770768315105, -0.09788027580486773, 0.22361555287754872, -0.1723305774762281, -0.2194265782732913, -0.05530360898331435, -0.33439484478189563, 0.5057467362612438, -0.16456061720446244, 0.24223005450373902, 0.07207643982114975, -0.2575172200083204, -0.0039369448917542195, 0.20758884787739934, -0.04169162983624044, 0.3264809644614206, 0.2878061784313309, 0.2473947940601569, -0.12304554445629853, -0.300552863168315, -0.16159838653946038, 0.0589041590659375, 0.1400388069974457, -0.6084961272005786, 0.0007140233353018193, 0.03640211895528883, -0.07824463956029129, 0.3494588345756075, 0.10414054388627107, 0.3683283311105414, -0.04454933196262149, 0.2632684947094205, 0.45042205677448044, 0.3636580222378501, -0.30363646515137543, -0.05948809847044216, -0.08738046423158621, 0.13252830405415955], [0.19888565969508, -0.22405256487182518, 0.019753631748737805, -0.5604161428347525, 0.3917550697543413, -0.14981188626746242, 0.010103523992381075, -0.09381187689819426, 0.3114968124607114, -0.7965869786289305, 0.0033334261021940354, -0.03974887802553026, -0.1309586631554038, 0.4737876758460593, -0.23623684829477828, 0.20698509421292566, 0.10698210584152057, 0.33943608894182464, -0.19106727225348183, -0.1904840105463168, 0.31093874596740806, 0.12848519864406885, -0.42074340466320403, -0.1385735675164491, 0.09981107231423092, 0.23592735883870797, -0.18703899988999695, -0.8188015589019281, 0.14892215081113966, -0.33419368972911295, -0.5704295020480588, -0.8128220374355629, 0.23557004143139215, 0.03519948564424933, -0.08302728966589484, 0.3952746415190518, 0.16890283179268575, 0.43201695235845633, -0.39358644184998115, -0.024071675921098046, -0.4403541821957304, -0.05847691188373108, -0.06002352900059812, 0.18420438925427057, -0.0017542349305509587, 0.16780461819673204, 0.183313174455202, 0.6030516238055442, -0.09376516461213359, -0.24961145796561326, 0.08345458414703757, -0.23447394266562568, 0.4190355396887077, -0.08787384950816646, -0.17029420421349822, -0.1271862564757302, 0.18914302222461854, -0.036146812405981256, -0.1871498544769788, 0.47405753367728715, -0.2301251099170759, 0.0008609769014420623, 0.16273895322320786, -0.4433328845647077, 0.12371723160532934, -0.2839090490755269, 0.21927265509902774, -0.2755719140306399, 0.18580602054831385, 0.31594379193254357, 0.2468780978020846, 0.05805881830651173, -0.06129533265672277, -0.1655025861239997, 0.4036926713584964, -0.20181459290759474, -0.2757560182992259, 0.18103423656355838, -0.2285608889920826, -0.25077943411404746, -0.3893915057057956, -0.1444304690362892, -0.022502157985800166, 0.05399227650138059, 0.27364253099902963, 0.16151154488548755, -0.06462185497325608, -0.06658095679717996, 0.15163473088050214, 0.3608384569838702, 0.020103692314273298, -0.12113505279507635, -0.26010138796736426, -0.4050721481630217, 0.17383948132788413, 0.15329565065514977, 0.15249161162397026, -0.021570949938208014, 0.3939142414620365, 